tree
version=v3
num_class=1
num_tree_per_iteration=1
label_index=0
max_feature_idx=19
objective=regression
feature_names=Column_0 Column_1 Column_2 Column_3 Column_4 Column_5 Column_6 Column_7 Column_8 Column_9 Column_10 Column_11 Column_12 Column_13 Column_14 Column_15 Column_16 Column_17 Column_18 Column_19
feature_infos=[-0.85205882673582167:3.6226046930633387] [-0.4375706906426432:46.930148302313761] [-0.21533456745094112:37.892296069282168] [-0.81349578275841505:15.376717167906424] [-1.1758494524495542:14.217714753078747] [-1.0304105379227977:9.9550564657678926] [-0.39687535559511083:16.572415781759791] [-1.8210510311202595:3.153624803773289] none none [-0.8173288776186155:5.3044067568785307] [-0.90816810233689338:20.051077596859066] [-5.7252449417720133:1.2440779259812782] [-0.74796159929671524:5.8144990954933018] [-0.47051195580443134:8.4663700543286691] [-1.1308755764844498:3.5617202070357563] [-1.1762764001085235:3.3131097636022799] [-1.6619806956006165:7.4236352355442126] [-1.7191773958792178:6.3020605740102136] [-3.5281551376788185:37.680993649303396]
tree_sizes=2705 2726 2761 2784 2771 2795 2715 2748 2729 2735 2751 2763 2743 2745 2753 2767 2721 2748 2787 2764 2749 2747 2735 2772 2753 2755 2718 2755 2753 2756 2775 2723 2742 2721 2744 2764 2777 2787 2795 2736 2760 2734 2731 2752 2753 2753 2760 2743 2729 2768 2713 2727 2752 2739 2774 2781 2731 2753 2724 2776 2754 2711 2745 2765 2761 2747 2730 2760 2764 2726 2772 2758 2752 2709 2759 2747 2738 2733 2781 2757 2734 2778 2767 2747 2753 2759 2748 2735 2743 2748 2762 2736 2725 2740 2720 2741 2716 2803 2743 2738 2740 2760 2751 2720 2764 2767 2740 2758 2755 2749 2753 2707 2765 2732 2728 2716 2748 2738 2761 2743 2782 2734 2762 2774 2749 2714 2704 2757 2761 2733 2741 2739 2743 2758 2773 2757 2748 2764 2779 2791 2763 2756 2720 2762 2732 2718 2740 2734 2714 2733 2763 2735 2759 2773 2765 2775 2779 2761 2735 2742 2754 2772 2782 2743 2752 2754 2718 2727 2755 2756 2786 2760 2761 2745 2718 2764 2759 2749 2748 2737 2750 2706 2751 2768 2744 2741 2722 2755 2784 2732 2738 2756 2723 2764 2743 2742 2775 2756 2737 2738 2748 2769 2789 2747 2811 2748 2738 2770 2782 2737 2773 2770 2755 2759 2785 2768 2757 2758 2741 2768 2730 2754 2757 2743 2758 2726 2774 2723 2734 2756 2763 2755 2740 2766 2756 2755 2770 2757 2769 2742 2741 2762 2753 2772 2763 2792 2754 2721 2716 2775 2730 2785 2750 2745 2753 2743 2743 2764 2756 2742 2736 2733 2760 2734 2738 2757 2778 2753 2756 2733 2733 2750 2754 2740 2755 2746 2742 2751 2762 2726 2761 2784 2716 2779 2753 2756 2754 2751 2767 2760 2775 2750 2752 2737 2756 2756 2768 2764 2785 2746 2746 2736 2744 2751 2755 2756 2788 2770 2752 2764 2786 2749 2772 2760 2743 2782 2764 2765 2777 2747 2806 2746 2756 2742 2762 2725 2761 2760 2768 2762 2769 2754 2748 2751 2749 2756 2784 2765 2752 2725 2721 2749 2733 2745 2784 2744 2765 2729 2742 2715 2750 2762 2775 2748 2779 2758 2748 2744 2742 2784 2784 2778 2748 2771 2734 2740 2785 2762 2777 2755 2715 2776 2743 2779 2778 2752 2737 2760 2754 2771 2756 2739 2752 2792 2741 2756 2778 2778 2746 2776 2770 2770 2763 2752 2771 2751 2781 2796 2741 2805

Tree=0
num_leaves=31
num_cat=0
split_feature=10 15 10 10 15 13 13 14 15 14 5 11 11 17 11 4 11 10 5 5 10 13 0 17 17 14 5 6 14 6
split_gain=814150 216264 165385 88270.9 87959.6 82914.6 65169.3 74742.2 42635.2 36087 29804.1 39651.2 28559.5 33398.2 25364.1 22809.2 19272.1 21958.2 20020.8 18831.9 18581.2 17974.5 17561.7 17478.1 18642.4 17024.7 15963.9 15544.8 13909.6 13378
threshold=-0.27565116906234793 -0.80724828106926305 1.1031648163536056 -0.52705182805736206 -0.87659698722966028 -0.37684313241893491 0.24513590091978385 -0.21655555868314905 -0.66855086874846881 -0.20799104675677146 1.8221553633224166 -0.13042814441669323 -0.37144741687290833 1.0648611469002078 -0.16985383241975263 -1.0784218308955773 0.4427496205819143 3.9618754026577343 -0.37560147112068931 0.85384371484605481 -0.21863246289853036 -0.61218655043899062 1.0000000180025095e-35 1.5842044948452518 1.2274730229405844 -0.15492830982160619 0.22441690248950785 -0.28902552055112252 4.3889176372054424 0.086704272418302211
decision_type=2 2 2 2 2 2 2 2 2 2 2 2 2 2 2 2 2 2 2 2 2 2 2 2 2 2 2 2 2 2
left_child=1 25 6 -3 15 21 7 12 -6 -9 11 -7 -2 29 -8 -4 17 22 -18 -13 26 -5 -17 24 -16 -1 -11 -22 -21 -14
right_child=2 3 4 5 8 10 14 9 -10 20 -12 19 13 -15 23 16 18 -19 -20 28 27 -23 -24 -25 -26 -27 -28 -29 -30 -31
leaf_value=31.122046187201686 33.55752276460489 31.863330023681989 37.823669453518924 33.226340210375618 33.481577140122717 33.259211363379364 33.912847492606403 31.695652595987006 34.989094468445757 34.445460054161174 32.370076312170099 34.73473516720307 34.820086537172379 32.572243332025472 34.899837143433565 34.771294645987439 34.980976913560959 36.879462015165956 39.061378021258221 32.859898877433693 32.531798047806269 31.853394302100973 36.521458047682238 32.301708714639389 37.770090371345724 31.916913967135663 32.313481419034773 33.392987424972965 35.56615729361905 33.655751987002425
leaf_weight=1115 716 765 66 118 300 948 447 185 501 176 212 362 626 87 547 253 20 101 34 108 391 498 75 24 23 365 43 450 22 118
leaf_count=1115 716 765 66 118 300 948 447 185 501 176 212 362 626 87 547 253 20 101 34 108 391 498 75 24 23 365 43 450 22 118
internal_value=33.2895 32.3076 34.1445 32.7915 35.096 33.105 33.809 33.557 34.4254 32.9804 33.4744 33.6375 34.021 34.4195 34.4839 36.0704 35.822 35.5876 37.6083 34.3649 33.2059 32.1159 35.1801 34.9119 35.0233 31.317 34.0243 32.9922 33.3318 34.6362
internal_weight=0 4513 5183 3033 1350 2268 3833 2792 801 1245 1652 1440 1547 831 1041 549 483 429 54 492 1060 616 328 594 570 1480 219 841 130 744
internal_count=9696 4513 5183 3033 1350 2268 3833 2792 801 1245 1652 1440 1547 831 1041 549 483 429 54 492 1060 616 328 594 570 1480 219 841 130 744
is_linear=0
shrinkage=1


Tree=1
num_leaves=31
num_cat=0
split_feature=7 12 7 3 19 14 19 10 19 19 3 19 10 10 10 19 13 13 1 19 10 1 7 5 7 19 10 10 5 3
split_gain=1.69747e+06 140196 89567.9 80394.6 55546.9 50325.4 36751.6 27907.4 24459.2 21577.4 20514.3 18978.8 16594.9 19939 16576.1 14992.6 14976.9 13518.8 13111.6 18060.8 12344.3 12171.4 12089.6 13425.5 11990.6 11680.2 11569.9 11465.2 12865.7 11122.9
threshold=-0.41070478926899556 0.65568427403161511 1.640707926151024 -0.092156195481524913 0.067783103306006107 -0.1055892737239964 0.43332394200352753 -0.18234783170337371 0.69774809259187776 0.41094270426520918 0.9872133333303269 1.8555498673748476 -0.03720930692274705 3.9618754026577343 3.9618754026577343 0.18550260050105713 4.2233448324511125 0.24513590091978385 0.16335116621215659 0.40801279677946573 -0.33266987522616559 -0.42575099942454769 -0.92355796812400104 0.50510677222257205 1.2560680420097705 -0.024822901154100685 1.2690374161028932 -0.22899950038286085 2.0284611311102196 -0.31555367973882342
decision_type=2 2 2 2 2 2 2 2 2 2 2 2 2 2 2 2 2 2 2 2 2 2 2 2 2 2 2 2 2 2
left_child=5 2 3 14 12 8 18 21 22 24 16 -12 -4 29 15 25 20 -16 19 -6 -5 -7 -1 -24 -3 -2 -8 -11 -29 -14
right_child=1 9 4 10 6 7 26 -9 -10 27 11 -13 13 -15 17 -17 -18 -19 -20 -21 -22 -23 23 -25 -26 -27 -28 28 -30 -31
leaf_value=-1.5456562130877449 0.82519724006875794 0.79040748668568472 4.3809513438831678 0.91016613729600992 3.479971293306777 0.93171786212921148 1.5833119244487197 -0.2229741927420954 -1.1954785933811218 0.50021759785251274 4.1219165383444887 1.131048854192098 0.67417382344342114 3.2360301689365536 3.307690536742117 1.206177648843981 3.6959425114570781 0.48468976462328883 6.5907889942969051 6.2331909418106086 2.0476903008010523 -1.3160756128340902 -2.1871194813876627 -1.3524811685909617 -0.010263912245135301 0.0083708783244121811 3.3966290792998146 0.94569667643257604 2.3468097310670664 2.2851886012430849
leaf_weight=680 535 265 21 122 111 24 80 342 639 630 89 29 170 53 50 653 46 26 30 33 480 1025 1290 234 630 260 67 955 70 57
leaf_count=680 535 265 21 122 111 24 80 342 639 630 89 29 170 53 50 653 46 26 30 33 480 1025 1290 234 630 260 67 955 70 57
internal_value=0 1.16509 1.63913 1.34902 2.70332 -1.50238 3.61869 -1.00825 -1.74371 0.623332 2.18449 3.40255 1.71838 1.50381 0.927941 0.85116 1.95778 2.36076 4.60571 4.14955 1.81905 -1.26381 -1.90204 -2.05994 0.227424 0.558405 2.42716 0.837166 1.04358 1.08695
internal_weight=0 5462 2912 2290 622 4234 321 1391 2843 2550 766 118 301 280 1524 1448 648 76 174 144 602 1049 2204 1524 895 795 147 1655 1025 227
internal_count=9696 5462 2912 2290 622 4234 321 1391 2843 2550 766 118 301 280 1524 1448 648 76 174 144 602 1049 2204 1524 895 795 147 1655 1025 227
is_linear=0
shrinkage=0.1


Tree=2
num_leaves=31
num_cat=0
split_feature=16 12 11 5 1 11 12 12 5 1 11 3 11 3 11 17 11 18 6 3 11 6 2 3 0 17 5 2 11 3
split_gain=155926 93760.5 40930 40507 39380.6 33831.6 32234.7 51073.1 36802.1 28932 26236.3 45763.1 30557.5 25596.2 41365.3 24867.2 20186.8 19517.1 24891 18677.9 21128.3 18226.5 17622.2 16734.8 14266.1 14189.6 13594.5 27449.5 41957.3 18064.9
threshold=-0.31801139822263463 -4.0400398221103559 -0.31433867960548895 0.96436875448575299 0.39414158140400501 0.8106450688869602 0.98701273823627977 1.186952328704612 -0.37560147112068931 -0.36113668743229271 0.10164243545212327 0.06738986602276438 0.37044211069163574 -0.33931234867017568 -0.2090229906368119 -0.048945649361022379 -0.60733194155221726 0.6871939950876117 -0.12590264504708967 -0.4907738631075465 -0.6195777039744671 -0.19827525350923783 -0.057231864036109324 -0.60494746658321163 1.0000000180025095e-35 1.7405860308074526 -0.70876204581426683 -0.18371526322292006 -0.31433867960548895 -0.43913175633314888
decision_type=2 2 2 2 2 2 2 2 2 2 2 2 2 2 2 2 2 2 2 2 2 2 2 2 2 2 2 2 2 2
left_child=6 -2 22 4 5 17 8 16 21 15 13 12 -12 14 19 -10 -8 -4 -19 20 -11 26 -3 -22 -7 -6 -1 28 -28 -30
right_child=1 2 3 -5 25 24 7 -9 9 10 11 -13 -14 -15 -16 -17 -18 18 -20 -21 23 -23 -24 -25 -26 -27 27 -29 29 -31
leaf_value=-1.4831042583715837 -1.5283740225616766 0.23843334921420914 0.8045819219446898 0.14464744824671694 0.23252888549269968 1.3531751840114594 -0.28250885870754722 -0.96203686224222185 0.11128930567308915 -1.6280091006022233 0.83316070244958018 -0.38452019760012629 4.3625295181023445 -1.2737841701408503 2.3720799582785577 3.8142745047807693 0.51888088987614644 2.2364566331609383 0.31933370791759685 -1.6730845212936403 2.5542259301688222 0.55306135897453013 -0.76136760908303813 0.0017224360520348833 3.1890316625064781 -1.5310028841418606 -0.86217289020226695 -1.1840872490536498 2.9868852842516369 0.4574588291155986
leaf_weight=447 244 1933 1176 822 172 74 499 499 42 51 71 249 37 360 57 31 846 232 96 97 36 77 193 84 106 61 253 730 44 77
leaf_count=447 244 1933 1176 822 172 74 499 499 42 51 71 249 37 360 57 31 846 232 96 97 36 77 193 84 106 61 253 730 44 77
internal_value=0 0.380646 0.476686 0.732163 0.98388 1.15239 -0.422469 -0.0990682 -0.639762 -0.196905 -0.332299 0.362105 2.07123 -0.6942 -0.0502618 1.71408 0.221573 0.996055 1.67802 -0.572364 0.058118 -0.942762 0.147355 0.782254 2.44594 -0.233738 -1.01733 -0.827573 -0.130401 1.39419
internal_weight=0 5109 4865 2739 1917 1684 4587 1844 2743 1115 1042 357 108 685 325 73 1345 1504 328 268 171 1628 2126 120 180 233 1551 1104 374 121
internal_count=9696 5109 4865 2739 1917 1684 4587 1844 2743 1115 1042 357 108 685 325 73 1345 1504 328 268 171 1628 2126 120 180 233 1551 1104 374 121
is_linear=0
shrinkage=0.1


Tree=3
num_leaves=31
num_cat=0
split_feature=10 16 10 12 16 10 10 6 19 19 10 12 15 5 13 10 5 13 14 3 2 5 12 3 12 10 5 19 3 19
split_gain=505027 140011 104235 60027.2 54164.8 45010.8 38446.5 31705.7 26768.6 27183.4 25585.1 20838.3 19827.7 17858.4 18148.1 16945.3 15713.3 15465.6 17886 15700.8 17098.1 14911.1 14575.2 14472.9 13064.9 12577.8 11814.2 11397.2 12366.8 13781.8
threshold=-0.27565116906234793 -0.31801139822263463 1.1031648163536056 0.98701273823627977 -1.1322628102682213 -0.52705182805736206 -0.45707432503813133 -0.38550343421292116 0.15180866441500698 0.43332394200352753 3.9618754026577343 -4.0400398221103559 0.72998137215287351 1.8221553633224166 -0.37684313241893491 -0.33785339396833086 -0.45907801704812107 0.22573946536868034 -0.16051386107793938 -0.37792018568362312 -0.10001761933640137 -0.66223247473733304 0.98701273823627977 0.043301215578476639 -2.4690858970020324 -0.31711931899966989 -0.64316300849970143 1.7359119783736552 -0.079616897989977883 0.40801279677946573
decision_type=2 2 2 2 2 2 2 2 2 2 2 2 2 2 2 2 2 2 2 2 2 2 2 2 2 2 2 2 2 2
left_child=1 6 4 8 16 -3 -1 21 10 26 23 -9 -5 14 -7 -8 -2 18 27 -19 -21 -6 -17 -4 -16 -24 -10 28 29 -13
right_child=2 5 3 12 7 13 15 11 9 -11 -12 17 -14 -15 24 22 -18 19 -20 20 -22 -23 25 -25 -26 -27 -28 -29 -30 -31
leaf_value=-1.6109448480867146 -1.5209880738769259 -0.97426122520184766 0.71359726670915635 0.25265801331028342 -0.99844652541092982 -0.63696683616108363 -0.28575413867418353 -1.3107778693620977 1.1825656379972187 1.8584609330925224 2.6567510736294282 0.088981342183793111 3.3396310985088351 -0.78180010754223828 -1.4143294944995788 -1.8893447945741091 0.081156742070850579 0.51107567854617775 0.029327467077910299 2.4134744758567503 1.0777202867358318 0.15405531292888902 -1.3322544603255289 2.5138699652197269 0.40263182127193231 0.24082119825122122 3.8646382658777387 0.0034631091551702536 1.4790413828409581 0.94910586217297943
leaf_weight=1523 174 565 330 389 133 224 396 51 20 291 116 273 21 218 40 175 94 341 494 123 442 691 115 51 1167 90 132 182 248 587
leaf_count=1523 174 565 330 389 133 224 396 51 20 291 116 273 21 218 40 175 94 341 494 123 442 691 115 51 1167 90 132 182 248 587
internal_value=0 -0.772564 0.674159 1.42951 0.407816 -0.20482 -1.31899 0.510945 1.86957 2.43581 1.36097 0.674404 0.418512 0.0592453 0.187827 -0.744654 -0.960829 0.712514 0.541113 1.04905 1.37226 -0.0329522 -1.22087 0.960529 0.341297 -0.643819 3.52177 0.736925 0.857292 0.676487
internal_weight=0 4513 5183 1350 3833 2214 2299 3565 940 443 497 2741 410 1649 1431 776 268 2690 1784 906 565 824 380 381 1207 205 152 1290 1108 860
internal_count=9696 4513 5183 1350 3833 2214 2299 3565 940 443 497 2741 410 1649 1431 776 268 2690 1784 906 565 824 380 381 1207 205 152 1290 1108 860
is_linear=0
shrinkage=0.1


Tree=4
num_leaves=31
num_cat=0
split_feature=10 15 10 15 13 10 11 15 13 14 15 12 14 1 11 3 15 0 15 1 11 10 2 18 2 1 3 10 0 18
split_gain=409422 101489 84639 51173.8 42327.3 44473.5 34259.8 25360 23098.7 31269.5 22763.4 19935.1 18912.8 18099.4 14602.2 14286.3 11968.8 14489.5 12036.4 11835.1 10277.2 14669 14795.9 9903.06 10082.1 10270.9 9835.36 9725.48 10728.6 10199.7
threshold=-0.27565116906234793 -0.80724828106926305 1.1031648163536056 -0.87659698722966028 -0.37684313241893491 -0.61257988730308843 -0.41004145909991924 -0.66855086874846881 0.22573946536868034 -0.21655555868314905 -0.87659698722966028 -4.0400398221103559 -0.20799104675677146 0.2215740896198117 0.878415974073534 -0.34244717304306244 0.96114372602086384 -0.091366028369964394 1.5390496106908402 0.17525841069853418 -0.16985383241975263 -0.33266987522616559 0.18184964152375829 1.0000000180025095e-35 -0.082365673409409687 -0.20257771857324966 -0.58531356656355238 3.9618754026577343 1.0000000180025095e-35 -0.38230440089764589
decision_type=2 2 2 2 2 2 2 2 2 2 2 2 2 2 2 2 2 2 2 2 2 2 2 2 2 2 2 2 2 2
left_child=1 -1 6 19 -3 -6 10 -5 9 13 -2 -7 -11 14 23 -14 17 -13 -18 27 -19 22 -22 -8 25 -25 -12 28 -4 -30
right_child=2 4 3 7 5 11 8 -9 -10 12 26 16 15 -15 -16 -17 18 20 -20 -21 21 -23 -24 24 -26 -27 -28 -29 29 -31
leaf_value=-1.3740947260884198 -1.0893999098328984 -0.95404985257711972 1.3157190725157157 0.048938706304345818 -1.3625166116862157 -1.6558085932660458 0.61314686478436364 1.2112229089931663 1.0638069946682547 -1.2063895088204972 0.32841283568807106 -0.29183357044447994 0.9555541698303488 -0.25344722488142074 2.5571898211132398 -0.18390044800899163 1.0445992431895161 -0.061832033798004254 -0.16130554162312385 3.2530777213439137 0.91983747987047693 2.3979687665467675 -0.74449967689610819 0.90527125055852697 0.37332031637430196 2.7134699963425337 -0.23788046728715009 2.6871909945382986 1.8033277387802418 4.3441736679077145
leaf_weight=1480 169 867 296 300 256 66 481 501 757 129 908 859 152 140 54 391 232 315 128 70 192 45 73 56 59 75 462 108 51 24
leaf_count=1480 169 867 296 300 256 66 481 501 757 129 908 859 152 140 54 391 232 315 128 70 192 45 73 56 59 75 462 108 51 24
internal_value=0 -0.695491 0.607116 1.28777 -0.364012 -0.127502 0.367112 0.776514 0.611902 0.388784 0.00207184 0.0386554 -0.122912 0.785993 0.986785 0.136233 0.100168 -0.0254367 0.616574 2.03094 0.34058 0.748367 0.460284 0.856786 1.46714 1.95321 0.13741 1.84594 1.59448 2.66286
internal_weight=0 4513 5183 1350 3033 2166 3833 801 2294 1537 1539 1910 672 865 725 543 1844 1484 360 549 625 310 265 671 190 131 1370 479 371 75
internal_count=9696 4513 5183 1350 3033 2166 3833 801 2294 1537 1539 1910 672 865 725 543 1844 1484 360 549 625 310 265 671 190 131 1370 479 371 75
is_linear=0
shrinkage=0.1


Tree=5
num_leaves=31
num_cat=0
split_feature=16 19 11 6 0 15 17 6 15 11 3 2 6 15 6 19 19 5 11 3 16 6 11 19 19 19 3 4 11 6
split_gain=83503.2 46661.2 29273 34343.4 22762.4 21591.6 17710 15525.1 15448.8 14720.6 22847.3 21829.6 13406.9 12916.7 11703.1 10367.1 13331.1 20217.9 12983.7 13228.3 12849.5 13105.3 10257.4 10228.7 10401.8 14613.1 10166.4 9976.7 20063.7 27758.8
threshold=-0.31801139822263463 0.040838418392472209 -0.31433867960548895 -0.15421322674613686 -0.27035256916193079 -0.76101581029566501 2.2968663949302504 -0.047219342773925928 0.96114372602086384 0.76950639931026388 1.4338433110884565 0.011004259564582767 0.11117440305853504 -0.80724828106926305 -0.014778797153551364 0.46042558624665481 0.19593484685181048 -0.45907801704812107 -0.21774444227204515 -0.18983072331041762 -0.43904877028346512 -0.071014782569345666 -0.063688879487624556 -1.0801603572202791 -0.62266354764985599 0.27095823550190895 0.63495806827173562 -0.1041456153558116 -0.29683040949322664 -0.31919779583128555
decision_type=2 2 2 2 2 2 2 2 2 2 2 2 2 2 2 2 2 2 2 2 2 2 2 2 2 2 2 2 2 2
left_child=1 27 7 6 -5 15 8 23 13 11 14 -6 -7 -4 -11 16 17 -3 -17 -20 -18 -22 -15 -2 -25 -26 -13 28 -1 -30
right_child=2 5 3 4 9 12 -8 -9 -10 10 -12 26 -14 22 -16 18 20 -19 19 -21 21 -23 -24 24 25 -27 -28 -29 29 -31
leaf_value=-0.72585886032113822 -0.65925282102666405 2.9906068082260235 2.944638439019521 -0.18331239106409444 0.87191206330206339 -0.71956171134145375 -1.5561082511112607 -0.57343507658066084 1.7307248694059396 4.0129694774037317 0.29026555555670158 -0.12600691547911419 0.89340715115530456 0.35392607924104302 1.4834620654414603 0.036737081676721572 -0.64646395711049642 0.0093583121444239768 1.6300773364217844 0.34549650073126714 -0.033416439226054077 1.6653486569722493 1.0135208736840036 0.79277104533612741 -0.47624717955816936 0.27071843299379494 -1.6392354596701879 -0.99728259906303462 2.4462482298413915 -0.23333190908683604
leaf_weight=945 151 34 26 816 204 550 28 381 209 20 229 151 56 425 176 424 364 65 135 197 842 47 533 249 342 1107 62 683 47 198
leaf_count=945 151 34 26 816 204 550 28 381 209 20 229 151 56 425 176 424 364 65 135 197 842 47 533 249 342 1107 62 683 47 198
internal_value=0 -0.308754 0.278966 0.489576 0.192982 -0.043737 0.891835 0.00696431 0.950544 0.557442 0.970907 0.13473 -0.569282 0.783247 1.76064 0.107543 -0.0583176 1.05289 0.403847 0.871168 -0.146884 0.0581648 0.721577 0.126805 0.197055 0.0942091 -0.572079 -0.692538 -0.51694 0.288564
internal_weight=0 4587 5109 2879 1658 2714 1221 2230 1193 842 425 417 606 984 196 2108 1352 99 756 332 1253 889 958 1849 1698 1449 213 1873 1190 245
internal_count=9696 4587 5109 2879 1658 2714 1221 2230 1193 842 425 417 606 984 196 2108 1352 99 756 332 1253 889 958 1849 1698 1449 213 1873 1190 245
is_linear=0
shrinkage=0.1


Tree=6
num_leaves=31
num_cat=0
split_feature=7 15 11 7 19 19 19 11 14 11 17 5 11 15 14 4 2 7 15 11 14 15 19 7 19 5 17 15 15 2
split_gain=900014 99950.5 66838.7 24416.3 23119.4 41926.4 17644.5 25628.5 19577.1 14485.2 12489 14832.8 11506.2 10719.6 10221.1 9655.34 9509.73 9021.7 7824.59 10506.9 7699.22 7606.85 7530.87 8054.49 9797.73 6969.62 6803.47 6715.77 7830.69 6662.9
threshold=-0.41070478926899556 -0.87659698722966028 0.013089161292712087 -0.66713137869649819 0.067783103306006107 0.4579839966752019 1.7359119783736552 0.97310200460643614 6.6231381397387183 -0.6132317899769576 -0.25499189623210655 -0.26593854229988495 -0.21774444227204515 0.96114372602086384 -0.43141309701009894 -0.49385610157171794 -0.1783825701603596 0.56371625055551378 1.1345154914218567 -0.31433867960548895 -0.1055892737239964 0.53349337136508157 0.41094270426520918 0.79450018104026621 0.54588122124750671 -0.57165963976943834 -0.29415403386635158 0.84556254908686868 2.0591649068938187 0.15271641759654112
decision_type=2 2 2 2 2 2 2 2 2 2 2 2 2 2 2 2 2 2 2 2 2 2 2 2 2 2 2 2 2 2
left_child=3 4 9 20 15 10 7 -4 -9 -3 11 -6 25 22 -12 -2 26 -8 -15 -20 -1 -5 -11 -24 -25 -7 -17 -22 29 -29
right_child=1 2 6 21 5 12 17 8 -10 13 14 -13 -14 18 -16 16 -18 -19 19 -21 27 -23 23 24 -26 -27 -28 28 -30 -31
leaf_value=-1.0819021174491803 0.86518893216294479 0.1280733727011921 1.2325497401015986 -1.4893326877281596 1.0067003630787918 2.1546207713584109 2.4782425219813984 3.0566839477220018 0.6826278437325296 0.28237975398470916 5.1658964592835002 4.0650236935451112 2.1772687560154331 1.7729102769494056 3.1925983425745597 2.0647525150042312 1.1190451143158449 0.4560573725459916 -0.13564028302797035 1.4745531858078071 -0.8202592695408738 0.17111208767726505 1.0025983709858672 1.5325755695243934 0.34010067269601407 0.19362568119050641 4.2753330577503554 2.0075465009762694 -0.85850859419354864 -0.19107690652211506
leaf_weight=1587 197 1018 835 1276 37 23 23 150 46 901 57 28 107 119 64 51 73 287 78 83 1237 28 445 76 668 75 21 25 52 29
leaf_count=1587 197 1018 835 1276 37 23 23 150 46 901 57 28 107 119 64 51 73 287 78 83 1237 28 445 76 668 75 21 25 52 29
internal_value=0 0.849181 0.680482 -1.09315 1.93514 2.46136 1.27785 1.4768 2.5058 0.443731 3.54696 2.36576 1.46394 0.579206 4.15689 1.32811 1.94681 0.613577 1.15977 0.698438 -0.932302 -1.45358 0.500909 0.66613 0.463806 0.670974 2.75924 -0.75485 0.0089995 0.844798
internal_weight=0 5462 4729 4234 733 391 1341 1031 196 3388 186 65 205 2370 121 342 145 310 280 161 2930 1304 2090 1189 744 98 72 1343 106 54
internal_count=9696 5462 4729 4234 733 391 1341 1031 196 3388 186 65 205 2370 121 342 145 310 280 161 2930 1304 2090 1189 744 98 72 1343 106 54
is_linear=0
shrinkage=0.1


Tree=7
num_leaves=31
num_cat=0
split_feature=7 12 7 17 2 10 10 10 1 19 19 4 10 10 2 6 7 10 13 7 1 19 7 1 4 19 4 19 19 1
split_gain=729676 67255.8 50671 29652.1 28323.7 20446.9 18588.1 18281.4 17312.8 13263.9 12998.5 12965.8 23691.9 13557.9 11472.4 11187.4 10971.7 9950.33 9947.21 9815.11 8782.25 10226.3 8582.94 10465.8 9632.06 9325.51 8381.01 7956.26 18596.3 8191.79
threshold=-0.41070478926899556 0.98701273823627977 1.640707926151024 -0.57594341511639591 0.0056478597637224714 -0.15643023799254752 -0.083860975602234197 0.40598154553238092 -0.17416668301567959 1.9117064275182649 0.69774809259187776 0.48042011396804801 -0.35858746893699178 3.9618754026577343 0.48334065717108116 -0.3010088355560096 1.0000000180025095e-35 -0.17716431296120846 0.24513590091978385 -0.92355796812400104 0.17525841069853418 0.41094270426520918 3.1023394858877889 -0.057808389468651265 -0.29900085846376473 1.8218559312887976 -1.0784218308955773 0.3811785647274975 0.43332394200352753 -0.049665935518407714
decision_type=2 2 2 2 2 2 2 2 2 2 2 2 2 2 2 2 2 2 2 2 2 2 2 2 2 2 2 2 2 2
left_child=5 2 4 -4 11 10 -7 -8 -6 -10 17 13 -13 26 16 -14 -3 19 -15 -1 27 -22 24 25 -18 -24 -2 29 -29 -5
right_child=1 14 3 20 8 6 7 -9 9 -11 -12 12 15 18 -16 -17 22 -19 -20 -21 21 -23 23 -25 -26 -27 -28 28 -30 -31
leaf_value=-0.85724894364939885 -0.25170645723858526 0.79658151790499687 1.0097532581958812 2.2212933740913869 -0.058410027623176576 0.37213537306623889 -1.1736589953752943 0.25146197572839063 2.338872215760317 0.61286875014765219 -0.76253780838835583 0.17392831164556491 0.96380602837436735 2.6877734145441767 1.28986369074503 2.2911553025968145 -0.064822503242905102 -2.0102383510007726 0.053692501357623518 -1.2850340090446517 4.4265876862135798 1.8720496555854536 0.43793407354393221 1.1402977360234638 0.55416477230164707 -0.93959510454109729 0.60239722904703819 4.0471327388097373 1.788503599559006 0.71052779969522506
leaf_weight=805 125 429 238 99 47 187 347 121 234 56 964 141 107 50 133 164 989 142 20 1668 43 28 403 198 336 55 1353 62 94 58
leaf_count=805 125 429 238 99 47 187 347 121 234 56 964 141 107 50 133 164 989 142 20 1668 43 28 403 198 336 55 1353 62 94 58
internal_value=0 0.765006 1.09248 1.89297 0.874991 -0.983889 -0.469197 -0.805448 1.7212 2.00883 -1.07793 0.728692 1.22719 0.59531 0.388828 1.77254 0.338588 -1.19386 1.94654 -1.14619 2.43633 3.45916 0.239055 0.534593 0.0924429 0.270824 0.530041 2.19404 2.70622 1.67121
internal_weight=0 5462 2919 622 2297 4234 655 468 337 290 3579 1960 412 1548 2543 271 2410 2615 70 2473 384 71 1981 656 1325 458 1478 313 156 157
internal_count=9696 5462 2919 622 2297 4234 655 468 337 290 3579 1960 412 1548 2543 271 2410 2615 70 2473 384 71 1981 656 1325 458 1478 313 156 157
is_linear=0
shrinkage=0.1


Tree=8
num_leaves=31
num_cat=0
split_feature=7 15 18 6 14 5 5 7 4 18 2 1 5 6 14 14 18 6 7 5 6 2 15 18 14 2 5 5 1 5
split_gain=591529 66892.1 43417 19425.7 17878.6 14329.9 18130.2 13929.8 11159.6 11764.2 10182.6 9021.34 8867 8578.45 10807.9 10225.7 8459.54 8442.74 7784.22 11625.2 7005.85 10732 6746.39 11554.8 6705.04 6257.6 5967.32 7152.45 11691.5 6462.87
threshold=-0.41070478926899556 -0.87659698722966028 -0.38230440089764589 -0.3010088355560096 -0.1055892737239964 0.50510677222257205 1.4710994183392996 0.79450018104026621 -0.1041456153558116 1.0000000180025095e-35 -0.20847186964349537 -0.41419396801129882 -0.72296084642894398 -0.15421322674613686 1.0000000180025095e-35 -0.3891490925038445 0.6871939950876117 -0.33817274963881899 -0.92355796812400104 0.43376691663537426 -0.26811585865483867 -0.15071464156551986 2.0591649068938187 1.0000000180025095e-35 -0.20426734591921603 0.48334065717108116 -0.77447402343830962 0.77402962453081381 -0.27686666671068644 0.41225922521248587
decision_type=2 2 2 2 2 2 2 2 2 2 2 2 2 2 2 2 2 2 2 2 2 2 2 2 2 2 2 2 2 2
left_child=4 5 7 -4 18 8 -7 26 9 10 -2 -6 -10 14 15 22 -16 -12 -1 -20 -19 -22 23 -5 -14 -9 -3 29 -29 -28
right_child=1 2 3 13 11 6 -8 25 12 -11 17 -13 24 -15 16 -17 -18 20 19 -21 21 -23 -24 -25 -26 -27 27 28 -30 -31
leaf_value=-0.81103215439872511 2.891216516494751 1.0889540784038239 0.41085638757264809 0.39221433288910812 0.78906014056309415 4.7436164148392219 1.0286694970130921 0.040442549091189467 0.27195990197360514 3.0625506758689882 1.9390791220383514 -0.63781916602150313 3.6684794950134618 0.87635139771257986 1.577810218719552 0.59211745853177633 3.1384234579709864 0.38468907111107487 -1.299450379754669 -0.70088850736480079 2.2707310067992363 0.54821876090189281 2.9894885383803271 1.8431374656565396 2.0220531101653894 1.4551666405051948 0.45831666781030578 -0.33376166603049717 1.8044385756864108 -0.2578494966285278
leaf_weight=1047 28 163 561 84 45 30 24 1366 23 31 71 1346 33 757 121 207 51 218 1365 431 62 87 28 161 126 31 933 36 85 145
leaf_count=1047 28 163 561 84 45 30 24 1366 23 31 71 1346 33 757 121 207 51 218 1365 431 62 87 28 161 126 31 933 36 85 145
internal_value=0 0.68903 0.551024 0.909512 -0.885629 1.57743 3.14125 0.294816 1.44862 1.19881 1.06853 -0.591125 2.12053 1.10762 1.37438 1.12637 2.05602 0.945695 -1.02946 -1.15628 0.748767 1.27533 1.52782 1.34929 2.38456 0.0728543 0.522262 0.444379 1.17076 0.361837
internal_weight=0 5462 4729 1970 4234 733 54 2759 679 497 466 1391 182 1409 652 480 172 438 2843 1796 367 149 273 245 159 1397 1362 1199 121 1078
internal_count=9696 5462 4729 1970 4234 733 54 2759 679 497 466 1391 182 1409 652 480 172 438 2843 1796 367 149 273 245 159 1397 1362 1199 121 1078
is_linear=0
shrinkage=0.1


Tree=9
num_leaves=31
num_cat=0
split_feature=7 18 12 10 14 18 7 10 10 10 7 7 5 12 10 16 6 10 10 6 2 18 7 6 6 14 14 14 7 2
split_gain=479663 46317 20201.4 20056.4 23018.9 18506.8 18386 16095.1 14770 14365.7 14076.8 10531.8 10831 10241.1 10697.1 29655 13166.5 10412.8 10096.4 9431.87 9053.18 8965.46 10067.3 8922.56 8498.32 8466.83 12182 7157.84 6832.3 8461.11
threshold=-0.41070478926899556 -0.38230440089764589 0.98701273823627977 -0.35340395019482657 -0.43141309701009894 1.0000000180025095e-35 1.640707926151024 -0.15643023799254752 -0.083860975602234197 0.50187664226243789 1.640707926151024 1.0000000180025095e-35 -0.77447402343830962 0.98701273823627977 -0.047576344407077524 -1.1322628102682213 1.4712378585596906 1.3675242722040328 -0.17716431296120846 -0.38716566062463237 -0.16953402708300294 1.2219431930802405 2.6664142838610347 -0.15421322674613686 -0.29766733425657027 0.022878405171666907 0.18299754118655168 0.15693163532366342 -0.92355796812400104 0.34086561365452434
decision_type=2 2 2 2 2 2 2 2 2 2 2 2 2 2 2 2 2 2 2 2 2 2 2 2 2 2 2 2 2 2
left_child=7 2 6 19 5 23 -2 18 -9 -10 -7 12 -4 14 15 -6 24 21 28 -3 -14 22 -16 -5 -17 -26 -27 -19 -1 -30
right_child=1 3 11 4 13 10 -8 8 9 -11 -12 -13 20 -15 17 16 -18 27 -20 -21 -22 -23 -24 -25 25 26 -28 -29 29 -31
leaf_value=-0.6606895105485121 0.4630941397984345 -0.26277879626545686 1.5444908374610047 2.2344677102275012 5.1184026448623001 2.4267423024854149 1.3481802498878437 0.40901744444953636 -0.95784948052833174 0.32256237223234951 5.773179357702082 0.025281270559824688 -0.212552039538111 0.69310212776444524 0.42460942139000735 0.31097157202571274 3.2271634479363764 1.9616013857744523 -1.6836432925123253 0.68079873657725365 1.0141633273924098 1.6400393964155862 2.4577212862097304 -0.055594609429438918 0.94418247381266029 3.6600805986051763 1.4047317889332771 0.1137026390204063 -1.0411132621001504 -0.49969864555944998
leaf_weight=1278 1076 150 95 40 22 36 300 187 352 116 21 1419 146 627 403 82 35 133 150 356 101 91 25 29 136 35 79 25 1804 347
leaf_count=1278 1076 150 95 40 22 36 300 187 352 116 21 1419 146 627 403 82 35 133 150 356 101 91 25 29 136 35 79 25 1804 347
internal_value=0 0.62084 0.369957 0.959038 1.11393 2.41531 0.656902 -0.797129 -0.34068 -0.640471 3.73792 0.145499 0.642772 1.01571 1.20463 1.62361 1.40077 0.961855 -0.880547 0.401115 0.291127 0.742936 0.548818 1.28493 1.19911 1.48803 2.12297 1.67177 -0.844935 -0.954045
internal_weight=0 5462 3137 2325 1819 126 1376 4234 655 468 57 1761 342 1693 1066 389 367 677 3579 506 247 519 428 69 332 250 114 158 3429 2151
internal_count=9696 5462 3137 2325 1819 126 1376 4234 655 468 57 1761 342 1693 1066 389 367 677 3579 506 247 519 428 69 332 250 114 158 3429 2151
is_linear=0
shrinkage=0.1


Tree=10
num_leaves=31
num_cat=0
split_feature=7 15 5 17 14 1 10 15 13 10 10 14 1 1 0 17 1 14 5 10 5 10 10 14 17 0 16 0 15 1
split_gain=388998 44297.7 15627.9 13994.6 13211.8 11379.4 11392.4 10343.7 10338.8 9987.26 8266.01 8209.53 10765.8 7992.47 7765.92 7512.18 7347.06 6203.13 6106.06 6166.71 6041.78 5920.46 5783.85 10759 6773.86 7063.76 6126.31 8241.97 6078.22 5648.25
threshold=-0.41070478926899556 -0.87659698722966028 3.5606543619629965 -0.53865037950560357 -0.1055892737239964 -0.088058043660147287 -0.34303691271049608 2.0591649068938187 4.2233448324511125 -0.18234783170337371 3.9618754026577343 -0.20054364508166059 0.17525841069853418 -0.34559598231220429 -0.27035256916193079 0.22999557642471316 -0.42575099942454769 -0.41651829365987708 -0.28379245302568562 -0.48817543749112274 -0.68739043369109021 0.40598154553238092 -0.047576344407077524 -0.047871910741886771 -0.5146190677754986 2.4591921779155572 0.50724341128302775 1.0000000180025095e-35 -0.80724828106926305 -0.20257771857324966
decision_type=2 2 2 2 2 2 2 2 2 2 2 2 2 2 2 2 2 2 2 2 2 2 2 2 2 2 2 2 2 2
left_child=4 3 5 10 21 8 18 22 17 16 -2 12 13 -5 -11 -9 -6 29 -7 -20 -19 -1 23 -8 -24 28 27 -25 -26 -3
right_child=1 2 -4 11 9 6 7 15 -10 14 -12 -13 -14 -15 -16 -17 -18 20 19 -21 -22 -23 24 26 25 -27 -28 -29 -30 -31
leaf_value=-0.85750092215269069 0.46854022696036202 0.40689844701914712 2.9422436099052431 2.8959963841871783 1.0814693121090533 -0.031184042916164636 0.67343091394582533 0.80024534326333274 0.90598612152849245 0.31120993905535943 1.9024315537238607 1.0516349024576954 3.3160604394212059 1.3812428215490513 -0.73209639928939918 3.172399784095826 -0.65807955297142218 0.59056722020442565 1.8039233941298265 0.39463775636793319 0.13707432337127912 0.42334889850100954 -0.37091725577453249 1.1451842585702738 1.9142940150153251 2.2195341663780037 0.44167326892677111 2.6921598270319511 0.46578937953567456 1.4145826752297581
leaf_weight=2807 231 187 24 43 24 321 416 25 266 242 48 165 48 198 100 30 1025 342 38 157 2056 36 75 74 30 26 37 68 478 79
leaf_count=2807 231 187 24 43 24 321 416 25 266 242 48 165 48 198 100 30 1025 342 38 157 2056 36 75 74 30 26 37 68 478 79
internal_value=0 0.559432 0.447126 1.28238 -0.717513 0.433776 0.633593 0.795712 0.312551 -0.464419 0.721145 1.62494 1.94751 1.66236 0.0049046 2.12769 -0.617288 0.252979 0.237262 0.67707 0.20197 -0.841139 0.73315 0.955121 0.515072 0.639969 1.6024 1.89964 0.554924 0.71035
internal_weight=0 5462 4729 733 4234 4705 1775 1259 2930 1391 279 454 289 241 342 55 1049 2664 516 195 2398 2843 1204 595 609 534 179 142 508 266
internal_count=9696 5462 4729 733 4234 4705 1775 1259 2930 1391 279 454 289 241 342 55 1049 2664 516 195 2398 2843 1204 595 609 534 179 142 508 266
is_linear=0
shrinkage=0.1


Tree=11
num_leaves=31
num_cat=0
split_feature=7 15 3 18 17 10 10 10 10 3 10 10 17 7 5 6 7 18 15 10 4 15 5 3 3 5 17 3 6 3
split_gain=315422 35980.7 31314.4 12437.7 11365 10995.2 11941.6 10358.7 9074.03 8306.08 7953.79 12749.2 10300.2 7942.41 7813.15 7558.6 7351.9 9325.92 7347.91 6733.85 7768.54 6439.76 10877.3 6342.77 9069.61 6295.97 6243.94 10516.8 6057.35 6048.77
threshold=-0.41070478926899556 -0.87659698722966028 -0.30416931754255044 1.0000000180025095e-35 -0.53865037950560357 -0.15643023799254752 -0.083860975602234197 0.14939736779520155 -0.33266987522616559 1.4338433110884565 -0.19271486918770417 -0.19789838792986944 -0.54612678759941402 -0.92355796812400104 0.50510677222257205 1.2747970875867116 1.0000000180025095e-35 -0.9170535988902746 2.3250016138420078 3.9618754026577343 -0.49385610157171794 0.96114372602086384 -0.021991306373451473 -0.66615903723273728 -0.60494746658321163 1.9868407181493948 0.89503987734080037 0.07992916351431141 -0.38550343421292116 -0.093476121533266704
decision_type=2 2 2 2 2 2 2 2 2 2 2 2 2 2 2 2 2 2 2 2 2 2 2 2 2 2 2 2 2 2
left_child=5 4 3 16 19 9 -7 -8 28 13 11 15 -12 -1 26 25 17 -3 -14 20 -2 -18 23 -23 -25 -10 27 29 -4 -6
right_child=1 2 8 -5 14 6 7 -9 10 -11 12 -13 18 -15 -16 -17 21 -19 -20 -21 -22 22 -24 24 -26 -27 -28 -29 -30 -31
leaf_value=-0.56966253315799409 -0.018014343223861747 -1.0586554653114744 -0.35745539343139776 0.91116268792882193 1.4250043342193814 0.40544761206082847 -0.9576788890179091 -0.011631214713151946 1.0220263247044734 -0.2251643032491582 0.11104005398398097 3.3913409471511842 0.83210290755873195 -0.88943013848432761 2.8141884088516238 2.1977586580647364 0.005032617595235986 0.61305686229376233 2.4981088076319016 1.7160709200769055 1.1828726522361532 -0.11872030147542692 -0.89678140401840212 2.3482224342150566 0.66565535051257996 -0.77651445184435164 0.38889910232636238 2.9501643963835456 0.54812716444948506 -0.066408935669929753
leaf_weight=1300 147 35 95 233 281 187 260 208 323 317 219 25 608 1962 39 53 1948 473 27 48 84 72 49 38 189 20 61 43 322 30
leaf_count=1300 147 35 95 233 281 187 260 208 323 317 219 25 608 1962 39 53 1948 473 27 48 84 72 49 38 189 20 61 43 322 30
internal_value=0 0.504088 0.402873 0.210681 1.15565 -0.645772 -0.268538 -0.538135 0.747513 -0.714716 0.879945 1.23622 0.703072 -0.762207 1.46435 1.09196 0.15217 0.496026 0.906757 0.649877 0.421888 0.0759069 0.471489 0.697962 0.956382 0.915203 1.33104 1.49183 0.341458 1.28139
internal_weight=0 5462 4729 3037 733 4234 655 468 1692 3579 1275 421 854 3262 454 396 2804 508 635 279 231 2296 348 299 227 343 415 354 417 311
internal_count=9696 5462 4729 3037 733 4234 655 468 1692 3579 1275 421 854 3262 454 396 2804 508 635 279 231 2296 348 299 227 343 415 354 417 311
is_linear=0
shrinkage=0.1


Tree=12
num_leaves=31
num_cat=0
split_feature=7 11 19 18 11 14 7 14 12 7 19 19 11 7 6 14 14 7 19 19 5 14 5 5 14 19 19 3 5 12
split_gain=255720 34740.5 20565.8 16210 14430.4 17328 11319.3 9859.98 8002.86 10653.9 11862.7 21005.6 9590.87 10196.9 7965 7899.72 7409.83 6820.54 6232.42 6337.84 6049.42 6573.64 5818.07 5762.15 5710.95 5482.03 5201.28 5132.47 5054.57 4883.48
threshold=-0.41070478926899556 0.11066182522464012 1.7359119783736552 1.0000000180025095e-35 0.878415974073534 6.1018200224809531 0.92271347575401752 -0.1055892737239964 0.98701273823627977 1.2560680420097705 0.13341535631006171 0.3811785647274975 -0.84870696673265711 1.0000000180025095e-35 1.1930185151878097 -0.41651829365987708 -0.39585175401144429 2.6664142838610347 0.69774809259187776 -0.45272891347673355 -0.77447402343830962 -0.39473464376017769 0.78159276876743389 0.41225922521248587 0.16437903699877437 -1.8489519099120797 0.36618022878857243 -0.72258587594469892 -0.26593854229988495 0.98701273823627977
decision_type=2 2 2 2 2 2 2 2 2 2 2 2 2 2 2 2 2 2 2 2 2 2 2 2 2 2 2 2 2 2
left_child=7 3 4 8 6 14 -3 18 9 25 -11 -12 -10 20 28 -5 -8 29 19 22 -14 -22 -1 -13 -23 -2 -26 -15 -6 -17
right_child=1 2 -4 15 5 -7 16 -9 12 10 11 23 13 27 -16 17 -18 -19 -20 -21 21 24 -24 -25 26 -27 -28 -29 -30 -31
leaf_value=-0.5733438391524035 1.4963353647504534 0.59247094713661153 0.13293124786895236 2.7811845205046914 0.57709108767686068 0.22116489016403587 2.3657887491534968 -0.36266301428717185 -0.85975470472963489 0.32350317047447219 4.0260741096276504 0.7173538009926772 1.2926145618612117 -0.373936679134727 3.6130739075296066 0.87972828344798393 1.1148487317900198 1.520784858211875 -0.41202059035684213 -0.87442867954611292 -0.50350951671600341 1.0836764504111582 0.70613966623419211 2.1480710799353466 -1.0194838200846028 0.22814121227436346 0.58508438267584506 0.12226776799401017 2.1202244546029951 -0.017259598416941507
leaf_weight=586 34 496 278 21 26 58 60 1391 97 233 25 156 98 252 33 161 237 99 639 1581 64 123 37 34 30 1368 57 1183 142 97
leaf_count=586 34 496 278 21 26 58 60 1391 97 233 25 156 98 252 33 161 237 99 639 1581 64 123 37 34 30 1368 57 1183 142 97
internal_value=0 0.454088 0.898467 0.310869 1.10045 1.74872 0.886782 -0.581248 0.247865 0.395938 0.82001 1.3541 0.103859 0.156032 2.18623 0.934272 1.37465 0.818165 -0.688031 -0.76783 0.621843 0.378104 -0.496345 0.983283 0.647899 0.259941 0.0264875 0.0349297 1.88623 0.543724
internal_weight=0 5462 1330 4132 1052 259 793 4234 3754 1850 448 215 1904 1807 201 378 297 357 2843 2204 372 274 623 190 210 1402 87 1435 168 258
internal_count=9696 5462 1330 4132 1052 259 793 4234 3754 1850 448 215 1904 1807 201 378 297 357 2843 2204 372 274 623 190 210 1402 87 1435 168 258
is_linear=0
shrinkage=0.1


Tree=13
num_leaves=31
num_cat=0
split_feature=7 11 19 18 11 12 12 19 7 19 19 12 7 17 19 11 7 19 12 12 19 5 17 17 5 17 17 7 6 12
split_gain=207354 28188.5 16695 13177.6 12020.9 9777.61 11841.5 7349.9 6837.3 6797.61 7286.6 7504.16 11321.5 17262.4 9593.24 8102.78 8447.98 6360.04 6162.73 6063.4 6537.83 5364.78 5342.6 8652.81 5222.14 5044.96 9472.47 5044.27 5889.19 5493.95
threshold=-0.41070478926899556 0.11066182522464012 1.7359119783736552 1.0000000180025095e-35 1.0843829088416492 0.98701273823627977 0.21581717500128433 0.53709149879027629 0.92271347575401752 -1.6493519624458044 -1.2411995724179266 0.98701273823627977 1.640707926151024 0.076462195926821033 0.43332394200352753 -0.87481698580179468 1.0000000180025095e-35 0.18550260050105713 0.98701273823627977 0.98701273823627977 -0.45272891347673355 3.4381471818802432 1.3440693872607226 1.5842044948452518 0.78159276876743389 0.37329339822274593 -0.42054093259505126 1.640707926151024 -0.15421322674613686 0.98701273823627977
decision_type=2 2 2 2 2 2 2 2 2 2 2 2 2 2 2 2 2 2 2 2 2 2 2 2 2 2 2 2 2 2
left_child=7 3 4 9 8 6 -6 19 22 -2 -11 12 -12 -14 17 -13 -17 -15 25 20 24 -22 -3 -24 -1 26 -10 29 -29 -5
right_child=1 2 -4 27 5 -7 -8 -9 18 10 11 15 13 14 -16 16 -18 -19 -20 -21 21 -23 23 -25 -26 -27 -28 28 -30 -31
leaf_value=-0.48298779701825922 1.2373872755582518 0.50139944421686999 0.11968577318961689 0.95002839728196475 0.23219916268631266 0.58106679874554013 2.6125985757590415 -0.34797926251532313 1.0173819065607828 -0.61200169502045831 0.25502823900955568 -0.99527842835946512 0.38129283900497146 1.6225587780411179 0.70638066178018399 0.55459771660855661 0.02370441801800861 3.6005818724632266 0.72362062417020745 -0.17126855673613373 -0.79378648239161342 0.75210905243521164 2.8813071897396676 0.45689849638276636 0.60089597506448633 0.74337572610378277 2.8310925684628949 1.6362761400035912 -0.14827254647793978 -0.015551250473577151
leaf_weight=627 64 485 278 149 26 56 110 1534 57 105 1352 65 216 36 43 376 1463 34 148 269 1735 22 25 35 47 49 61 110 22 97
leaf_count=627 64 485 278 149 26 56 110 1534 57 105 1352 65 216 36 43 376 1463 34 148 269 1735 22 25 35 47 49 61 110 22 97
internal_value=0 0.40914 0.809427 0.280131 0.99141 1.70668 2.16254 -0.523159 0.829926 0.223325 0.205407 0.229511 0.38343 0.908716 1.9047 0.0934899 0.132493 2.62049 1.20103 -0.622522 -0.672364 -0.774013 0.613631 1.49774 -0.406627 1.61729 1.97089 0.842207 1.33997 0.57077
internal_weight=0 5462 1330 4132 1052 192 136 4234 860 3754 3690 3585 1681 329 113 1904 1839 70 315 2700 2431 1757 545 60 674 167 118 378 132 246
internal_count=9696 5462 1330 4132 1052 192 136 4234 860 3754 3690 3585 1681 329 113 1904 1839 70 315 2700 2431 1757 545 60 674 167 118 378 132 246
is_linear=0
shrinkage=0.1


Tree=14
num_leaves=31
num_cat=0
split_feature=7 11 19 15 11 19 19 7 3 4 16 11 7 15 7 19 3 15 19 3 4 19 5 3 19 16 19 15 4 16
split_gain=168122 22902.9 13562.7 12316.2 9803.13 8933.57 20651.4 7745.2 7548.29 7862.85 6967.77 6560.56 6394.52 6238.3 6131.06 6774.77 5674.03 5610.13 8587.64 6129.56 5410.8 5390.02 5458.88 5102.89 4779.02 9901.42 4699.81 4479.18 4412.02 4391.13
threshold=-0.41070478926899556 0.11066182522464012 1.7359119783736552 -0.87659698722966028 0.878415974073534 0.13341535631006171 0.43332394200352753 0.92271347575401752 -0.3675257680261565 -0.88356658778762431 0.39720943668227277 -0.60733194155221726 -0.66713137869649819 0.96114372602086384 0.79450018104026621 0.55613589744760894 -0.43236713531797216 1.1345154914218567 0.55064232091183996 -0.21375438299823762 -0.49385610157171794 0.54771241342609644 -0.45907801704812107 2.3572965750383088 0.18550260050105713 0.28717546208151773 -0.12004489444076419 0.53349337136508157 -1.0784218308955773 0.28717546208151773
decision_type=2 2 2 2 2 2 2 2 2 2 2 2 2 2 2 2 2 2 2 2 2 2 2 2 2 2 2 2 2 2
left_child=12 3 4 5 7 16 8 -3 9 -7 -4 21 -1 24 -6 -16 20 26 19 -19 -2 22 -5 -12 25 -13 -15 -14 -23 -26
right_child=1 2 10 11 14 6 -8 -9 -10 -11 23 13 27 17 15 -17 -18 18 -20 -21 -22 28 -24 -25 29 -27 -28 -29 -30 -31
leaf_value=-0.38861761280878521 0.22467357103641217 0.47399552192171701 0.52387137475338852 0.02309645421539798 1.8200111435030744 2.4464822080900088 0.37493435334774761 1.1209144441023369 3.778708026558161 0.42539634294807915 -0.91405828333482519 0.38796670146258477 -0.68273293354906606 1.5560302229931482 2.1404146541442191 0.31205476334220483 -0.56228444129228594 -0.66475742753547962 1.335873749826038 0.88119736964765361 1.3450773419439794 -0.086575135434667272 -0.55761858552098276 0.54644311035380644 0.20449510602212456 -0.47009618926574204 0.078925819232546046 0.58010096961054314 0.65529422422364958 0.57333802986099869
leaf_weight=2930 155 496 164 459 157 52 154 297 23 31 81 265 1276 94 27 75 59 78 56 37 59 149 249 33 1313 271 28 28 172 428
leaf_count=2930 155 496 164 459 157 52 154 297 23 31 81 265 1276 94 27 75 59 78 56 37 59 149 249 33 1313 271 28 28 172 428
internal_value=0 0.368627 0.729439 0.252341 0.893464 0.700556 1.11908 0.717391 2.18659 1.70567 0.10776 0.185785 -0.470854 0.271189 1.42773 0.812114 0.299331 0.704851 0.332061 -0.164055 0.538389 -0.0275734 -0.181636 -0.490206 0.215102 -0.0459349 1.22042 -0.655193 0.311738 0.295447
internal_weight=0 5462 1330 4132 1052 533 260 793 106 83 278 3599 4234 2570 259 102 273 293 171 115 214 1029 708 114 2277 536 122 1304 321 1741
internal_count=9696 5462 1330 4132 1052 533 260 793 106 83 278 3599 4234 2570 259 102 273 293 171 115 214 1029 708 114 2277 536 122 1304 321 1741
is_linear=0
shrinkage=0.1


Tree=15
num_leaves=31
num_cat=0
split_feature=7 11 15 10 10 10 10 10 17 11 11 15 2 5 10 4 11 11 7 1 7 10 1 11 15 15 11 10 10 10
split_gain=136301 18800.4 10171 8095.87 9356.34 7716.13 7433.09 7271.89 7044.85 6253.78 6166.44 5978.1 6724.27 6572.05 6164.57 5661.88 7037.96 5554.42 5513.37 5814.89 5329.99 5128.12 4874.51 9469.96 5362.18 5451.77 6524.3 5842.95 7035.95 5175.24
threshold=-0.41070478926899556 0.019840181382723945 -0.87659698722966028 -0.15643023799254752 -0.083860975602234197 0.50187664226243789 3.9618754026577343 -0.17716431296120846 -0.12753693920429129 -0.64966328386363237 1.5142729656558538 -0.87659698722966028 -0.026002945198751772 -0.72732865491118326 -0.047576344407077524 -1.0784218308955773 -0.1846508654827341 0.84983545870310595 -0.92355796812400104 -0.41419396801129882 0.79450018104026621 -0.19271486918770417 -0.4044317785978348 -0.60733194155221726 0.96114372602086384 1.1345154914218567 -0.31433867960548895 -0.48817543749112274 -0.3793215439056527 -0.2652841315780175
decision_type=2 2 2 2 2 2 2 2 2 2 2 2 2 2 2 2 2 2 2 2 2 2 2 2 2 2 2 2 2 2
left_child=3 2 6 7 -5 -6 8 10 9 -2 18 12 14 -13 -3 -10 -17 -15 21 -20 -19 -1 -4 -24 -25 27 -27 -26 -29 -28
right_child=1 11 22 4 5 -7 -8 -9 15 -11 -12 13 -14 17 -16 16 -18 20 19 -21 -22 -23 23 24 25 26 29 28 -30 -31
leaf_value=-0.36838295559067918 -1.1520660268834659 2.1436158273369075 0.56953230423494605 0.49586221668968333 -0.57187238517969252 0.36588679208205299 1.4155711055410152 -1.1630494106338909 1.8884589421749116 0.29643373503465559 0.087026027832180275 2.0125314060846966 2.4332214109825365 0.36639218574887666 0.61385462136007851 0.15663308054573982 1.7869100373652245 1.1575038380920888 0.48771052825815825 -0.61884239915230088 0.44393837230566602 0.57223010864414159 -0.17613813726574515 0.16467807296557035 2.3828272144599207 -0.40647428933578206 -0.22078404396772389 -0.56790998146451754 1.316894824616611 1.4182211970378247
leaf_weight=1212 34 31 259 187 352 116 97 150 44 200 199 29 32 867 159 101 35 215 48 1910 207 60 808 2063 28 78 29 28 63 55
leaf_count=1212 34 31 259 187 352 116 97 150 44 200 199 29 32 867 159 101 35 215 48 1910 207 60 808 2063 28 78 29 28 63 55
internal_value=0 0.332093 0.215741 -0.42378 -0.100366 -0.339152 0.631392 -0.482924 0.444691 0.0819611 -0.452842 0.628081 1.10811 0.546448 0.873364 0.913182 0.58617 0.511929 -0.48612 -0.59148 0.809362 -0.3236 0.153305 0.118934 0.22068 0.629785 0.249604 1.14095 0.737086 0.856434
internal_weight=0 5462 3922 4234 655 468 511 3579 414 234 3429 1540 222 1318 190 180 136 1289 3230 1958 422 1272 3411 3152 2344 281 162 119 91 84
internal_count=9696 5462 3922 4234 655 468 511 3579 414 234 3429 1540 222 1318 190 180 136 1289 3230 1958 422 1272 3411 3152 2344 281 162 119 91 84
is_linear=0
shrinkage=0.1


Tree=16
num_leaves=31
num_cat=0
split_feature=7 18 5 14 12 12 7 1 1 13 6 17 6 5 17 14 17 1 5 14 5 12 6 14 7 6 17 17 1 5
split_gain=110517 15254.4 11538.7 10098.5 8408.79 7919.95 10703.6 12114.3 8625.27 8143.74 9440.18 7410.94 6348.76 6989.25 6121.54 5814.46 6373.18 5726.82 5253.91 5573.99 5176.83 5086.55 4967.18 4769.15 5260.43 4891.92 4572.9 12909.9 7471.48 5229.77
threshold=-0.41070478926899556 0.6871939950876117 3.5606543619629965 -0.43141309701009894 0.42718188492494974 0.98701273823627977 0.92271347575401752 0.16908590528463988 0.24915336912870112 4.2233448324511125 0.67006765537577617 -0.10795587038716876 0.04222754422684262 -0.53077032179108241 -0.57594341511639591 -0.1055892737239964 3.5073324672614583 -0.37606451967440579 -0.64316300849970143 7.7030113826298008 -0.74143540188193813 0.42718188492494974 0.49038212663284458 -0.17466392426065011 1.2560680420097705 -0.28247073734356182 0.63906190498605375 0.32798992536858512 0.018450507205134851 0.41225922521248587
decision_type=2 2 2 2 2 2 2 2 2 2 2 2 2 2 2 2 2 2 2 2 2 2 2 2 2 2 2 2 2 2
left_child=15 2 5 4 -3 6 9 14 -9 -2 21 20 13 -13 17 -1 -17 -8 23 -20 -5 -11 -14 25 -25 -7 27 29 -28 -16
right_child=1 3 -4 11 -6 18 7 8 -10 10 -12 12 22 -15 26 16 -18 -19 19 -21 -22 -23 -24 24 -26 -27 28 -29 -30 -31
leaf_value=-0.46339676296449783 0.16906472116569571 1.0459875727954664 2.4248773217201234 1.3696091513335706 3.5594670398668811 0.59683606358912755 1.4391958594322205 3.4307979033543514 1.0377917233295739 0.90586790161094433 1.9177045745364691 0.50188500140276227 -0.61514257418142781 1.7483206099364907 0.30434138314688908 -0.24183280007836158 1.4025450865427653 0.028011862516403196 -0.0045360706649533898 1.1472019353188401 0.15472319392184486 -0.46556531987760374 0.98380467600938748 0.62098001074045905 -0.25406875968408243 2.1172694453486689 1.0666923672892155 2.5093263737559321 -1.2674626621107261 1.5283188379108905
leaf_weight=2843 1732 37 23 39 21 105 32 25 39 65 58 71 36 127 118 1368 23 224 1844 42 288 45 40 135 138 26 31 49 23 49
leaf_count=2843 1732 37 23 39 21 105 32 25 39 65 58 71 36 127 118 1368 23 224 1844 42 288 45 40 135 138 26 31 49 23 49
internal_value=0 0.299214 0.237209 0.750078 2.00095 0.226178 0.34959 0.721358 2.01096 0.233827 0.896543 0.626239 1.00908 1.30613 0.56093 -0.381419 -0.213655 0.209323 0.091894 0.0217067 0.303352 0.345687 0.228256 0.418688 0.179335 0.912355 0.892302 1.09723 0.0675464 0.670432
internal_weight=0 5462 4803 659 58 4780 2490 590 64 1900 168 601 274 198 526 4234 1391 256 2290 1886 327 110 76 404 273 131 270 216 54 167
internal_count=9696 5462 4803 659 58 4780 2490 590 64 1900 168 601 274 198 526 4234 1391 256 2290 1886 327 110 76 404 273 131 270 216 54 167
is_linear=0
shrinkage=0.1


Tree=17
num_leaves=31
num_cat=0
split_feature=7 11 15 10 10 12 10 10 11 1 7 14 17 17 17 11 5 15 1 17 10 10 1 7 1 12 10 10 15 10
split_gain=89663.6 13184.6 6641.85 6432.8 7593.58 6377.87 6343.47 5785.96 5691.57 7086.76 6435.68 5374.67 9530.19 7212.59 5134 4772.18 4558.08 4545.26 5461.63 7842.64 4523.82 5715.28 5207.07 4492.9 4612.96 4432.7 6207.18 4387.7 6372.16 4094.47
threshold=-0.41070478926899556 0.11066182522464012 -0.87659698722966028 -0.15643023799254752 -0.083860975602234197 0.98701273823627977 0.14939736779520155 -0.17716431296120846 0.84983545870310595 -0.17416668301567959 0.92271347575401752 -0.20426734591921603 0.44467529454698318 -0.35699146379766294 -0.12753693920429129 1.5142729656558538 1.5742684627978096 -0.42583039718707888 0.32655045829015567 1.0154634505661035 3.9618754026577343 -0.047576344407077524 -0.31145020768215087 -0.92355796812400104 -0.41419396801129882 0.98701273823627977 1.0000000180025095e-35 0.12088801471329273 1.1345154914218567 -0.19271486918770417
decision_type=2 2 2 2 2 2 2 2 2 2 2 2 2 2 2 2 2 2 2 2 2 2 2 2 2 2 2 2 2 2
left_child=3 2 14 7 16 8 27 15 10 -10 17 13 -13 -12 20 23 -5 -3 19 -19 21 22 -2 29 -25 26 -16 28 -6 -1
right_child=1 5 -4 4 6 -7 -8 -9 9 -11 11 12 -14 -15 25 -17 -18 18 -20 -21 -22 -23 -24 24 -26 -27 -28 -29 -30 -31
leaf_value=-0.29183097336854347 0.033404229953885083 -0.67693911790847783 0.1327051677395357 0.67169914163830802 -0.5359413632705945 0.23661148722909245 0.14115518202412536 -1.0025090345089009 -0.68663655491102316 1.2451131381963689 0.69838105067610745 1.2234102989806503 -1.0365035895948056 2.6986129161473866 2.4504078274523771 0.10564732062071563 -0.78150961494445803 0.44713935352561451 -0.3071506715938449 2.0101687391599019 0.97137112065927311 -0.18451761201024056 2.2128381314731782 0.4673127420702759 -0.51790566781944147 -0.34387419223785404 0.80690554909665024 -1.2216549855244312 1.3163505480402993 0.54844928647651048
leaf_weight=1212 23 39 3599 163 162 450 208 150 20 239 37 60 26 36 26 199 24 309 79 35 66 199 20 48 1910 26 173 78 20 60
leaf_count=1212 23 39 3599 163 162 450 208 150 20 239 37 60 26 36 26 199 24 309 79 35 66 199 20 48 1910 26 173 78 20 60
internal_value=0 0.269805 0.181579 -0.34326 -0.0550358 0.54356 -0.270201 -0.395979 0.700076 1.09388 0.53434 1.08143 0.53612 1.70793 0.510726 -0.369162 0.482026 0.344125 0.43964 0.611534 0.244174 0.0426658 1.07435 -0.398439 -0.493527 0.872911 1.03281 -0.598566 -0.326312 -0.251795
internal_weight=0 5462 4132 4234 655 1330 468 3579 880 259 621 159 86 73 533 3429 187 462 423 344 308 242 43 3230 1958 225 199 260 182 1272
internal_count=9696 5462 4132 4234 655 1330 468 3579 880 259 621 159 86 73 533 3429 187 462 423 344 308 242 43 3230 1958 225 199 260 182 1272
is_linear=0
shrinkage=0.1


Tree=18
num_leaves=31
num_cat=0
split_feature=1 11 13 3 11 6 1 6 6 1 11 5 18 0 3 1 18 16 6 3 12 16 14 11 3 12 16 1 14 11
split_gain=8558.59 13106.2 6577.33 6346.19 4777.72 7635.01 6156.81 6986.55 7938.06 6040.44 9158.17 6113.23 4676.4 4635.63 4532.86 4328.17 3980.7 6343.66 4404.3 3733.6 3617.97 3644.98 5235.11 4597.43 6365.05 6038.1 3549.34 5114.15 3379.88 3320.63
threshold=-0.39392538640397229 -0.41004145909991924 4.2233448324511125 -0.55660517493816841 0.91806914990781807 0.15296621413808087 0.97759656123650818 0.086704272418302211 -0.28902552055112252 0.22932255386278536 0.11066182522464012 -0.67822446793880709 2.291441589065498 2.4591921779155572 -0.16079235017209817 0.014335503595871947 0.6871939950876117 -0.31801139822263463 -0.12590264504708967 0.70887392716927611 -2.4690858970020324 -0.31801139822263463 6.6231381397387183 -0.59809361494134239 -0.5910882430399228 1.0000000180025095e-35 0.067107512880007755 -0.16598045243129492 -0.40162349030965527 0.29895091763218801
decision_type=2 2 2 2 2 2 2 2 2 2 2 2 2 2 2 2 2 2 2 2 2 2 2 2 2 2 2 2 2 2
left_child=-1 20 3 -3 5 9 7 8 -6 10 11 -5 -10 15 -12 -4 -13 -18 -19 -11 -2 -22 23 -23 28 -26 -16 -28 -25 -29
right_child=1 2 13 4 6 -7 -8 -9 12 19 14 16 -14 -15 26 -17 17 18 -20 -21 21 22 -24 24 25 -27 27 29 -30 -31
leaf_value=0.3854856916211753 -0.90102414164473021 0.47545723474254242 0.61331370233134797 -0.4535494585594626 -0.54611859453075073 -0.42219042877016011 -0.65178700621155183 0.121578766161619 1.3957355368350235 -0.1349615974313971 0.8255475326645666 -0.021306328835106331 0.013120030587719335 1.2861790505903108 0.05196413947712808 -0.042739030091913155 -0.023735848578471174 1.274415533752232 -0.21632801500650556 -0.73548880102204495 -0.25502096502944721 -0.20582974069557283 -1.1551229276308199 1.0703900426206454 -0.698132062809808 0.16325469876113147 -0.25790868686958096 0.17721096996853991 0.30276928414626947 0.95851464044941947
leaf_weight=548 67 312 219 292 33 437 65 388 132 689 163 1676 30 55 419 185 157 90 25 121 1872 631 40 70 125 229 70 81 307 168
leaf_count=548 67 312 219 292 33 437 65 388 132 689 163 1676 30 55 419 185 157 90 25 121 1872 631 40 70 125 229 70 81 307 168
internal_value=0 -0.0210225 0.0697656 0.038548 0.0113907 -0.026059 0.264634 0.367749 0.854447 0.0178509 0.0806492 -0.0276768 1.14135 0.432621 0.349693 0.31353 0.0363603 0.390465 0.95127 -0.225466 -0.178795 -0.163745 -0.0417747 -0.00825372 0.162342 -0.142017 0.243618 0.494402 0.447753 0.706081
internal_weight=0 9148 5807 5348 5036 4388 648 583 195 3951 3141 2240 162 459 901 404 1948 272 115 810 3341 3274 1402 1362 731 354 738 319 377 249
internal_count=9696 9148 5807 5348 5036 4388 648 583 195 3951 3141 2240 162 459 901 404 1948 272 115 810 3341 3274 1402 1362 731 354 738 319 377 249
is_linear=0
shrinkage=0.1


Tree=19
num_leaves=31
num_cat=0
split_feature=10 10 10 10 6 17 13 17 17 11 11 10 17 17 6 6 1 11 6 13 11 1 1 0 4 4 18 10 11 0
split_gain=33365.7 6942.78 5379.73 8412.84 6078.66 5594.56 5149.15 4991.73 5063.93 4973.54 4771.22 4766.1 6285.56 6416.64 5232.6 7597.3 4285.84 4254.47 5058.6 10234.7 7941.76 4010.73 7700.79 5787.71 5191.87 4571.22 3800.54 4474 3746.62 3705.12
threshold=-0.27565116906234793 -0.648864518498245 1.2690374161028932 1.2223857474234061 -0.38550343421292116 1.5842044948452518 -0.4182221949279557 1.3440693872607226 1.4964457046012396 -0.13539108681198683 -0.13042814441669323 1.3130973254112979 0.14116872788158474 0.63906190498605375 -0.15421322674613686 -0.015549153118152052 -0.26163239802958566 -0.84870696673265711 0.15296621413808087 4.2233448324511125 1.7226559486709427 0.13634098294710131 0.098080204707785112 1.027299851579826 0.67527535707600117 -0.1041456153558116 -1.4518027968829033 -0.51927654994411421 -0.80787236238262106 1.0000000180025095e-35
decision_type=2 2 2 2 2 2 2 2 2 2 2 2 2 2 2 2 2 2 2 2 2 2 2 2 2 2 2 2 2 2
left_child=1 -1 3 4 6 7 -2 17 -9 26 -8 12 -4 -14 28 -16 29 -6 20 -20 21 22 24 -23 -19 -24 27 -3 -13 -11
right_child=2 9 11 -5 5 -7 10 8 -10 16 -12 14 13 -15 15 -17 -18 18 19 -21 -22 23 25 -25 -26 -27 -28 -29 -30 -31
leaf_value=-0.4658478350501456 0.97570424244146459 -0.62625976189588894 0.4098916420924732 -0.70840079781867693 -0.30123431854206939 -0.39032745851229317 -0.036655578761852374 2.1618974009045848 0.087097967754710806 0.1996180939230513 -0.70474221196174625 -0.84014670171520933 2.8717876527044512 0.56816107829411822 -0.6828485662101681 0.40899754451787368 -0.027110626716940957 0.27452539873536957 -0.38146242382507656 0.45016962798497889 1.9695853526222296 -0.22493405227150234 0.55571520580695233 1.1330103394058015 0.93545051303226501 2.4610988974571231 -0.25575397679999801 0.63764471358340247 0.49121083491676176 1.6637723088264467
leaf_weight=791 43 38 87 117 144 145 739 26 21 46 124 21 26 23 116 139 1238 1710 325 270 28 244 25 35 127 26 2274 99 622 27
leaf_count=791 43 38 87 117 144 145 739 26 21 46 124 21 26 23 116 139 1238 1710 325 270 28 244 25 35 127 26 2274 99 622 27
internal_value=0 -0.196959 0.1749 0.123983 0.148306 0.214393 -0.0796989 0.243928 1.25599 -0.139705 -0.133354 0.378891 0.928793 1.82348 0.294669 -0.0884126 0.0170561 0.227294 0.254671 -0.00396104 0.324748 0.302596 0.35487 -0.0511445 0.320702 1.55574 -0.224917 0.285075 0.446492 0.75632
internal_weight=0 4513 5183 4149 4032 3126 906 2981 47 3722 863 1034 136 49 898 255 1311 2934 2790 595 2195 2167 1888 279 1837 51 2411 137 643 73
internal_count=9696 4513 5183 4149 4032 3126 906 2981 47 3722 863 1034 136 49 898 255 1311 2934 2790 595 2195 2167 1888 279 1837 51 2411 137 643 73
is_linear=0
shrinkage=0.1


Tree=20
num_leaves=31
num_cat=0
split_feature=10 19 19 19 17 17 14 10 6 2 16 10 0 19 14 12 19 17 6 10 6 14 2 19 14 17 10 19 2 3
split_gain=27058 6509.25 12961.8 9150.41 6650.78 7681.28 9052.41 8830.9 7182.1 6830.2 6279.66 5824.78 5591.97 6714.27 4944.19 4944.1 5519.94 5950.35 4722.01 7660.63 4844.33 4819.19 4674.32 9327.17 6038.06 5459.76 5104.69 4967.8 5806.02 6250.68
threshold=-0.27565116906234793 1.720041646159211 1.7035609165519039 5.1956444011224292 -0.15254730437525216 1.4964457046012396 -0.42396569533498801 1.1031648163536056 1.4712378585596906 -0.11320044216351731 2.1577530302943528 -0.52705182805736206 1.0000000180025095e-35 0.44675268464651852 5.3384613507820839 0.21581717500128433 0.40801279677946573 0.99214417770207597 -0.2170797760000944 0.37747219245047209 -0.31855583252745234 -0.26682551999014764 -0.11320044216351731 0.4579839966752019 -0.41651829365987708 -0.53865037950560357 -0.24455005660935655 0.52000037179010572 0.04673048257124094 0.81908775248971588
decision_type=2 2 2 2 2 2 2 2 2 2 2 2 2 2 2 2 2 2 2 2 2 2 2 2 2 2 2 2 2 2
left_child=11 2 4 -3 22 6 7 12 10 -9 15 -1 13 -6 -5 -8 18 -18 19 -17 21 -21 23 26 -25 -24 -2 -27 -29 -30
right_child=1 3 -4 14 5 -7 8 9 -10 -11 -12 -13 -14 -15 -16 16 17 -19 -20 20 -22 -23 25 24 -26 27 -28 28 29 -31
leaf_value=-0.32712295565762095 0.52802277840940015 -0.33866720437632558 2.3427360822047509 2.0755506606329059 1.3254390184430109 -0.19620044673210943 -0.36923542590368363 2.4453373671661724 1.4623220931165495 0.69133001685142526 1.4052879820478725 -0.091102625658206982 -1.0164622573689981 -0.32267944323710906 0.34507151775889927 -0.29630944150267169 0.36818075454761534 1.2202688404358923 0.6109652423494154 -0.17300933711230757 -0.17036423189299449 1.2807441104026069 -0.44856088079722323 1.7934476147095364 0.34662758926698817 0.89105953775661095 -0.11548092341729144 -0.76321947229081311 1.9682290359621957 -0.27350621319586232
leaf_weight=1646 139 481 27 20 68 255 125 54 51 39 46 2867 21 38 80 379 575 95 138 31 69 83 318 29 803 70 1031 68 20 30
leaf_count=1646 139 481 27 20 68 255 125 54 51 39 46 2867 21 38 80 379 575 95 138 31 69 83 318 29 803 70 1031 68 20 30
internal_value=0 0.157631 0.19745 -0.157561 0.18428 0.31705 0.389347 0.989391 0.305857 1.72497 0.26666 -0.177238 0.441474 0.73711 0.708291 0.23071 0.285678 0.490638 0.0890832 -0.0399234 0.489786 0.887358 0.0747729 0.143404 0.39915 -0.196516 -0.0386449 0.229932 -0.166454 0.644198
internal_weight=0 5183 4602 581 4575 2067 1812 220 1592 93 1541 4513 127 106 100 1495 1370 670 700 562 183 114 2508 2002 832 506 1170 188 118 50
internal_count=9696 5183 4602 581 4575 2067 1812 220 1592 93 1541 4513 127 106 100 1495 1370 670 700 562 183 114 2508 2002 832 506 1170 188 118 50
is_linear=0
shrinkage=0.1


Tree=21
num_leaves=31
num_cat=0
split_feature=7 3 19 10 7 5 10 15 10 19 5 19 5 10 5 16 5 19 7 2 10 2 10 2 10 19 19 10 6 5
split_gain=54121.5 9135.87 8038.03 7428.14 6619.64 6127.63 5717.5 4792.76 5432.45 6789.35 8525.58 7865.23 5028.89 5098.52 4694.98 6404.5 5593.34 5322.47 5452.67 5180.34 4358.82 4354.56 4268.86 3937.51 4800.22 3803.07 3789.53 3774.84 5159.26 3770
threshold=-0.41070478926899556 -0.31555367973882342 1.7359119783736552 -0.35340395019482657 0.56371625055551378 -0.64316300849970143 -0.30156876277317418 -0.87659698722966028 3.9618754026577343 0.067783103306006107 -0.26593854229988495 0.43332394200352753 -0.021991306373451473 -0.15124671925038227 0.50510677222257205 -0.15296043632150219 1.4710994183392996 0.70263127173478346 2.6664142838610347 -0.013145100739024604 0.50187664226243789 0.48334065717108116 1.3130973254112979 -0.10001761933640137 -0.16420551610579537 -1.8489519099120797 0.015320636475241952 -0.078677456860068953 -0.15421322674613686 2.6838023270298534
decision_type=2 2 2 2 2 2 2 2 2 2 2 2 2 2 2 2 2 2 2 2 2 2 2 2 2 2 2 2 2 2
left_child=20 7 3 26 5 -5 -6 8 9 22 -11 -12 25 -14 17 16 -16 18 19 23 -1 -4 -2 -8 -25 -9 -3 -19 -29 -23
right_child=1 2 21 4 6 -7 14 12 -10 10 11 -13 13 -15 15 -17 -18 27 -20 -21 -22 29 -24 24 -26 -27 -28 28 -30 -31
leaf_value=-0.28360027768298135 0.21487602446459039 -0.40394507055652557 -0.34828394925320783 1.2497763027747473 1.6968967110216617 -0.70209458677125158 0.64214816013128928 1.1609387061175178 1.0688659452662177 0.13486054302193226 2.1704543930979874 0.011601546177497278 -0.0016972538087337377 -0.83591199272718186 3.0490503627061845 0.71427389210888947 0.97365142837647467 0.48344214147991604 2.013239389878732 1.5504492462897788 0.33587983023279755 0.7318023659123315 -0.73001377654362876 1.3191227610464451 -0.12446267509916027 0.096452215668851926 0.29560893541721572 0.030262330174446107 -1.5902585506439211 -0.56550128698349
leaf_weight=4118 112 115 206 20 49 68 435 33 97 127 51 25 196 116 24 210 30 89 26 48 116 89 82 26 156 2673 232 72 26 29
leaf_count=4118 112 115 206 20 49 68 435 33 97 127 51 25 196 116 24 210 30 89 26 48 116 89 82 26 156 2673 232 72 26 29
internal_value=0 0.209751 0.383266 0.473847 0.585102 -0.249429 0.646921 0.113326 0.40175 0.236476 0.63935 1.46968 0.0659984 -0.313534 0.600424 0.970269 1.93472 0.488241 0.616159 0.558595 -0.266553 -0.0713772 -0.186206 0.479049 0.0878452 0.109858 0.0632737 0.0147977 -0.411392 0.410901
internal_weight=0 5462 1950 1626 1279 88 1191 3512 494 397 203 76 3018 312 1142 264 54 878 691 665 4234 324 194 617 182 2706 347 187 98 118
internal_count=9696 5462 1950 1626 1279 88 1191 3512 494 397 203 76 3018 312 1142 264 54 878 691 665 4234 324 194 617 182 2706 347 187 98 118
is_linear=0
shrinkage=0.1


Tree=22
num_leaves=31
num_cat=0
split_feature=10 19 19 19 11 11 19 10 13 14 14 14 19 19 6 10 14 16 11 14 3 11 3 3 1 11 1 11 1 1
split_gain=18176.4 4514.31 10333.9 6923.54 4941.62 7167.8 4667.73 6063.64 11103.4 6442.54 6655.1 4966.9 6194.62 8851.96 4429.17 4370.84 4226.15 4205.07 9235.35 4179.4 7738.89 13272.3 6201.62 6157.05 6038.76 3931.29 3704.41 3613.08 4735.66 4638.87
threshold=-0.27565116906234793 1.720041646159211 1.7035609165519039 5.1956444011224292 1.0843829088416492 1.2587979143270451 0.040838418392472209 3.9618754026577343 0.24513590091978385 -0.36438648193410067 1.8214259097109535 -0.43141309701009894 -0.68553447911476828 -1.0468897356897988 1.1930185151878097 -0.648864518498245 5.3384613507820839 0.39720943668227277 1.8537184302821059 -0.43141309701009894 -0.40497866974432994 -0.40588816780085951 -0.28057563936766589 0.043301215578476639 -0.34148097870294142 -0.13539108681198683 0.45455333651871505 -0.44758155217989903 -0.35654014084747782 -0.060916530492668937
decision_type=2 2 2 2 2 2 2 2 2 2 2 2 2 2 2 2 2 2 2 2 2 2 2 2 2 2 2 2 2 2
left_child=15 2 4 14 6 -6 7 9 -9 11 -11 12 13 -2 -3 -1 -5 18 -7 20 21 24 -22 -24 -8 -17 -27 28 -13 -29
right_child=1 3 -4 16 5 17 19 8 -10 10 -12 27 -14 -15 -16 25 -18 -19 -20 -21 22 -23 23 -25 -26 26 -28 29 -30 -31
leaf_value=-0.3583266583883975 0.022049215383696974 -0.41577497548740178 2.0781065621546335 1.8839125854628429 1.7813110343245573 -0.28720391545976914 1.5116371674090625 1.0345373353091154 -1.3039822306632995 -0.34231236848492475 1.1109067100918655 0.90645039512051473 -0.64783227967324664 2.2580012400945026 0.44021633615796002 -0.17532136792693115 0.28483977372539632 -0.13847318713584642 1.9884490962769534 0.16123331663259796 -0.62902942299842834 3.1944123444733799 1.659575840830803 0.042284612050132148 -0.48271866306181882 0.11696762231133906 -0.32569113912337411 1.5475066073605273 -0.53689696477807092 -0.1403172669203385
leaf_weight=791 113 411 27 20 42 34 29 109 24 717 32 44 106 20 70 2411 80 88 36 2840 59 26 37 62 30 1083 228 60 45 22
leaf_count=791 113 411 27 20 42 34 29 109 24 717 32 44 106 20 70 2411 80 88 36 2840 59 26 37 62 30 1083 228 60 45 22
internal_value=0 0.129477 0.162637 -0.133006 0.150881 0.635785 0.128574 -0.0309695 0.605967 -0.10452 -0.278827 0.213813 -0.0807767 0.372624 -0.290548 -0.144985 0.62014 0.32199 0.894655 0.195423 0.592705 1.35621 0.176013 0.657278 0.506414 -0.099561 0.0397939 0.623626 0.178811 1.09844
internal_weight=0 5183 4602 581 4575 200 4375 1292 133 1159 749 410 239 133 481 4513 100 158 70 3083 243 85 158 99 59 3722 1311 171 89 82
internal_count=9696 5183 4602 581 4575 200 4375 1292 133 1159 749 410 239 133 481 4513 100 158 70 3083 243 85 158 99 59 3722 1311 171 89 82
is_linear=0
shrinkage=0.1


Tree=23
num_leaves=31
num_cat=0
split_feature=10 1 11 10 11 15 17 4 11 17 10 13 17 10 10 0 10 1 13 1 17 17 14 6 6 14 12 1 10 14
split_gain=15142.8 4493.87 8164.27 4578.96 4350.46 4348.4 9796.51 4483.4 4096.41 4020.99 3668.74 3311.06 3137.98 3700.71 7499.74 5702.58 4550.27 4291.4 3943.81 3553.36 4336.05 4534.06 3718.75 3638.01 3634.7 6099.91 7503.62 3587.45 4028.81 3390.84
threshold=-0.42597321258513993 -0.39725241059869537 -0.6195777039744671 1.2690374161028932 -0.90408113173053961 0.96114372602086384 0.076462195926821033 -1.0784218308955773 1.0843829088416492 3.2123703669889863 1.2223857474234061 -0.61218655043899062 1.8603865700249387 -0.23418301912502609 -0.21344894415636514 1.1615397571738006 -0.24455005660935655 -0.36564568074882542 4.2556722250362844 -0.29936785665920884 -0.60851919323942705 -0.34969306542037176 -0.33068698935422386 -0.3010088355560096 0.11117440305853504 -0.43141309701009894 0.98701273823627977 -0.20257771857324966 0.032768196096483668 -0.3606627810965452
decision_type=2 2 2 2 2 2 2 2 2 2 2 2 2 2 2 2 2 2 2 2 2 2 2 2 2 2 2 2 2 2
left_child=4 -2 -3 10 -1 7 -7 -5 -9 11 12 -6 13 16 15 -15 17 29 -19 20 -16 -22 24 -24 27 -26 -27 28 -21 -4
right_child=1 2 3 5 9 6 -8 8 -10 -11 -12 -13 -14 14 19 -17 -18 18 -20 22 21 -23 23 -25 25 26 -28 -29 -30 -31
leaf_value=1.2022870830514216 0.41678496039656798 -0.1783544775308944 1.8902974399653349 1.5305740321124042 -1.3275833827477914 -0.19434116631746293 2.3797207111312497 0.16776802819401559 1.2914398747331957 0.79831245617988789 -0.59855487142689534 -0.21365865177853102 -0.27607240641741776 1.2666884711291642 0.13260586684213846 -0.52554851851680062 -0.63413281304485825 -0.034561434294180696 0.54108153253779279 0.32014142664254841 -1.3889830929040909 -0.19358834708448161 -0.17237002414079722 0.20315019193624517 -1.1348026893077754 1.467080302834511 -0.57783140652888532 0.6513888378685373 -1.0690040840552404 0.08666760992436183
leaf_weight=21 373 1176 21 26 26 28 30 726 33 38 79 2624 228 99 245 21 107 1537 128 105 44 109 351 966 38 34 36 402 25 20
leaf_count=21 373 1176 21 26 26 28 30 726 33 38 79 2624 228 99 245 21 107 1537 128 105 44 109 351 966 38 34 36 402 25 20
internal_value=0 0.0795382 0.0604589 0.112127 -0.198935 0.326229 1.15484 0.263616 0.218258 -0.210325 0.0727853 -0.225084 0.0846593 0.1039 0.183385 0.951296 -0.00465036 0.035179 0.00999042 0.143869 -0.128265 -0.544149 0.199251 0.103014 0.39682 -0.131094 0.422085 0.504035 0.046877 1.03349
internal_weight=0 6987 6614 5438 2709 843 58 785 759 2688 4595 2650 4516 4288 2475 120 1813 1706 1665 2355 398 153 1957 1317 640 108 70 532 130 41
internal_count=9696 6987 6614 5438 2709 843 58 785 759 2688 4595 2650 4516 4288 2475 120 1813 1706 1665 2355 398 153 1957 1317 640 108 70 532 130 41
is_linear=0
shrinkage=0.1


Tree=24
num_leaves=31
num_cat=0
split_feature=7 5 12 7 17 5 13 6 16 12 17 6 2 2 10 10 14 17 17 6 2 2 17 10 16 10 0 10 2 10
split_gain=35424.6 8113.62 6742.43 5122.98 5729.72 6298.91 5364.36 4977.23 4381.56 4376.4 3905.15 4021.42 7624.62 6574.84 4286.87 6773.95 4148.24 3700.49 8543.09 4600.37 4323.94 3457 3243.1 3220.73 3046.87 5992.66 3928.33 3788.66 3832.14 3675.28
threshold=-0.41070478926899556 3.5606543619629965 0.98701273823627977 0.92271347575401752 -0.57594341511639591 -0.72296084642894398 4.2233448324511125 0.67006765537577617 0.50724341128302775 0.42718188492494974 -1.3871336932948244 0.15296621413808087 0.0056478597637224714 -0.13370524326585129 -0.17716431296120846 -0.2652841315780175 0.15693163532366342 -0.059448222635660984 0.79028115916919517 -0.015549153118151708 0.063126043534972379 -0.19024706499923097 4.4669828490169801 0.50187664226243789 0.17714148748076275 4.8897252575053125 -0.27035256916193079 1.2457115817631497 -0.20065898988833339 1.5204380750979072
decision_type=2 2 2 2 2 2 2 2 2 2 2 2 2 2 2 2 2 2 2 2 2 2 2 2 2 2 2 2 2 2
left_child=22 2 3 6 -5 -6 10 9 -7 -8 21 12 13 -12 15 16 -15 20 19 -19 -14 -2 23 -1 26 -26 27 -4 -29 -30
right_child=1 -3 24 4 5 8 7 -9 -10 -11 11 -13 17 14 -16 -17 -18 18 -20 -21 -22 -23 -24 -25 25 -27 -28 28 29 -31
leaf_value=-0.2378130227052028 0.0026020185755831855 1.9675609067678452 0.11482807024473661 0.14317663015034807 -0.33822706122787632 0.78633874990890285 0.81658429730294368 1.3731530853680203 2.2859773635864258 -0.43563762661069633 0.29499832135401804 -0.30288505219383005 -0.83196580111980445 -0.30863052501302701 -0.35544583337179514 1.2247766678239786 1.1159736648201943 2.6785166878958009 0.18876339185237886 0.91198509504486402 1.0665753270188967 -1.2578366909590033 0.78820970505476007 0.29472020758140804 -0.36262880455462576 0.980873196189468 0.63362501919750247 0.39494278292133389 -1.0404499073473501 -0.20147613835572012
leaf_weight=4087 55 24 1707 270 48 352 66 69 20 47 1083 161 23 137 331 50 23 36 49 27 23 35 31 116 325 36 123 72 70 200
leaf_count=4087 55 24 1707 270 48 352 66 69 20 47 1083 161 23 137 331 50 23 36 49 27 23 35 31 116 325 36 123 72 70 200
internal_value=0 0.169886 0.161592 0.265542 0.503344 0.73399 0.191269 0.709952 0.872877 0.296496 0.144509 0.174418 0.217687 0.152878 -0.131646 0.221118 -0.0981841 0.878676 1.18654 1.94751 0.119801 -0.496004 -0.21546 -0.223049 0.0423178 -0.226311 0.0870493 0.0539456 -0.249381 -0.422025
internal_weight=0 5462 5438 2905 690 420 2215 182 372 113 2033 1943 1782 1624 541 210 160 158 112 63 46 90 4234 4203 2533 361 2172 2049 342 270
internal_count=9696 5462 5438 2905 690 420 2215 182 372 113 2033 1943 1782 1624 541 210 160 158 112 63 46 90 4234 4203 2533 361 2172 2049 342 270
is_linear=0
shrinkage=0.1


Tree=25
num_leaves=31
num_cat=0
split_feature=10 1 11 19 19 5 4 11 13 14 14 11 19 4 10 2 2 2 11 11 13 2 11 11 2 1 1 2 0 15
split_gain=10460.3 3787.62 6221.42 4263.93 9147.95 8202.04 3883.15 3497.15 3339.59 4672.07 4258.25 5844.08 4655.86 3555.43 4022.83 3283.49 3599.99 3222.33 2923.34 3112.75 2869.71 2807.5 5236.87 4962.68 8170.26 6221 7848.46 5818.9 4100.88 4042.41
threshold=-0.42597321258513993 -0.39107990518480112 -0.6195777039744671 1.720041646159211 1.7035609165519039 3.1834425431615685 -0.68871134467967099 -0.90408113173053961 4.2233448324511125 5.8039239554765167 6.1018200224809531 -0.12419355043130618 0.54771241342609644 -1.0784218308955773 1.1031648163536056 -0.17043446216638225 -0.18799746272060516 -0.19309215023396359 -0.64221539152031315 -0.66348626682054157 -0.61218655043899062 -0.10205898480113317 1.0843829088416492 0.1287458285245987 -0.14347523394399453 -0.17775636701524924 0.13634098294710131 -0.18099007081790469 -0.62832565074586355 -0.42583039718707888
decision_type=2 2 2 2 2 2 2 2 2 2 2 2 2 2 2 2 2 2 2 2 2 2 2 2 2 2 2 2 2 2
left_child=7 15 18 4 5 8 -5 -1 9 13 11 -10 -12 14 -4 16 17 -2 19 -3 -9 23 -23 -15 27 -26 28 -25 -27 -24
right_child=1 2 3 6 -6 -7 -8 20 10 -11 12 -13 -14 21 -16 -17 -18 -19 -20 -21 -22 22 29 24 25 26 -28 -29 -30 -31
leaf_value=1.0910287028009242 0.50760515486776414 -0.18672566463289331 0.28651802191486608 -0.54603750295498787 1.8696501857042316 1.525727800915881 -0.0062527534006386514 -1.2016569669599888 0.18646000933873913 -0.99522049516439448 0.729511291667437 1.5055298839932059 -0.24790261649168457 0.076603100292261403 1.6938936441072396 -0.20041195240824725 1.6756358747680982 -0.53804989186200236 -0.79979021619347967 0.32983468739049782 -0.164940504419645 -0.13699252303640844 1.4235404893330166 1.195915740003457 -0.55657742271820709 1.1319055428107581 0.11896244798387801 -0.17664744189397538 2.427937798721846 0.21147671529853884
leaf_weight=21 288 952 76 169 29 40 617 26 68 39 77 66 129 2478 27 85 23 32 67 132 2662 1028 34 36 23 65 48 186 42 131
leaf_count=21 288 952 76 169 29 40 617 26 68 39 77 66 129 2478 27 85 23 32 67 132 2662 1028 34 36 23 65 48 186 42 131
internal_value=0 0.0662519 0.0474156 0.0923486 0.128965 0.11757 -0.12286 -0.165195 0.104866 0.0804815 0.405897 0.842491 0.119201 0.0907683 0.668182 0.354131 0.491737 0.401689 -0.1636 -0.123577 -0.175411 0.0759987 -0.0529535 0.129452 0.455846 0.958539 1.18549 0.0502951 1.6584 0.468306
internal_weight=0 6987 6559 5408 4622 4593 786 2709 4553 4213 340 134 206 4174 103 428 343 320 1151 1084 2688 4071 1193 2878 400 178 155 222 107 165
internal_count=9696 6987 6559 5408 4622 4593 786 2709 4553 4213 340 134 206 4174 103 428 343 320 1151 1084 2688 4071 1193 2878 400 178 155 222 107 165
is_linear=0
shrinkage=0.1


Tree=26
num_leaves=31
num_cat=0
split_feature=7 5 4 10 19 4 16 19 19 19 19 15 15 15 5 5 10 19 5 19 19 6 10 10 19 16 10 15 10 10
split_gain=26709.1 6002.12 6127.69 6516.63 5309.11 5651.96 5906.86 4800.62 3615.85 4771.44 3078.14 4633.66 3165.83 3058.76 4209.99 4878.55 3663.34 5369.92 4636.71 4196.58 3527.71 5884.34 3366.72 5491.34 7348.98 3218.45 2996.85 2966 2867.87 2539.78
threshold=-0.41070478926899556 3.5606543619629965 0.2855648708600948 -0.35858746893699178 0.40036248278891323 0.48042011396804801 0.28717546208151773 0.18550260050105713 -1.6493519624458044 -1.4003098261576075 0.015320636475241952 0.66063266599247628 0.84556254908686868 -0.87659698722966028 0.50510677222257205 1.4710994183392996 1.3675242722040328 0.13341535631006171 -0.31275218480351286 0.43332394200352753 -0.68553447911476828 -0.33817274963881899 -0.48817543749112274 -0.50890951245978366 0.55064232091183996 -1.1322628102682213 1.2690374161028932 -0.032854395611495175 -0.30156876277317418 0.50187664226243789
decision_type=2 2 2 2 2 2 2 2 2 2 2 2 2 2 2 2 2 2 2 2 2 2 2 2 2 2 2 2 2 2
left_child=29 2 8 10 5 6 -5 -7 26 -10 -4 -12 -13 14 16 -16 17 20 -19 -20 -11 -22 23 27 -25 -18 -2 -15 -6 -1
right_child=1 -3 3 4 28 7 -8 -9 9 13 11 12 -14 22 15 -17 25 18 19 -21 21 -23 -24 24 -26 -27 -28 -29 -30 -31
leaf_value=-0.19995542374089303 0.32420639747923075 1.693833930015564 -0.54687015589914834 3.1523432175318402 0.99155479826159398 0.359082800383768 0.76103963540947961 1.5356538410357974 -0.75157701164922297 0.23790609993868406 -0.34237465502610848 1.8275581706653943 0.25943112626220238 -0.47731807988423569 2.0581315010786057 0.039899225668473676 0.91428373713012145 0.086972016809242117 1.641911582324816 -0.011929620367785295 0.34568024367094041 -1.1482375054419796 0.034953579832234898 2.6162018150091173 0.24128276877105237 -0.29601809978485111 1.748466583956843 0.41195994658602608 0.25183438614447728 0.2728534091017249
leaf_weight=4118 43 24 94 20 58 136 22 46 67 71 66 21 32 51 27 21 108 139 45 23 39 78 3511 23 29 27 22 134 485 116
leaf_count=4118 43 24 94 20 58 136 22 46 67 71 66 21 32 51 27 21 108 139 45 23 39 78 3511 23 29 27 22 134 485 116
internal_value=0 0.147662 0.140528 0.366812 0.50256 0.911436 1.94658 0.663224 0.0907128 0.079656 -0.122076 0.215237 0.903102 0.0927006 0.306627 1.19399 0.224165 0.069857 0.420277 1.09046 -0.31616 -0.651556 0.0596368 0.423619 1.32127 0.671827 0.825452 0.165559 0.332524 -0.18694
internal_weight=0 5462 5438 980 767 224 42 182 4458 4393 213 119 53 4326 578 48 530 395 207 68 188 117 3748 237 52 135 65 185 543 4234
internal_count=9696 5462 5438 980 767 224 42 182 4458 4393 213 119 53 4326 578 48 530 395 207 68 188 117 3748 237 52 135 65 185 543 4234
is_linear=0
shrinkage=0.1


Tree=27
num_leaves=31
num_cat=0
split_feature=7 5 4 10 12 10 15 13 6 13 6 11 11 2 11 5 4 10 16 6 2 2 15 16 2 10 12 6 6 10
split_gain=21681.4 4906.88 4989.88 5285.17 4587.23 3987.22 5939.31 6191.74 4271.07 4094.91 3446.49 4146.99 3359.47 7088.48 3181.25 4704.02 3223.93 2997.67 5354.94 5114.21 4126.49 5404.48 7309.78 3881.13 4279.04 4108.85 5259.82 4105.44 4570.89 3283.41
threshold=-0.41070478926899556 3.5606543619629965 0.2855648708600948 -0.35858746893699178 0.98701273823627977 1.0000000180025095e-35 -0.5414115741210741 1.2505178103186487 -0.3010088355560096 0.24513590091978385 -0.014778797153551364 0.26530866335570763 -0.87481698580179468 -0.20887570208307779 0.37044211069163574 -0.34437032945938301 1.259841086399861 3.1325124039112962 0.61727738588378278 -0.15421322674613686 -0.20475953394789445 -0.20227511347960467 0.96114372602086384 0.39720943668227277 -0.16428663497834328 -0.48817543749112274 0.21581717500128433 -0.15421322674613686 -0.1873385332239331 -0.27565116906234793
decision_type=2 2 2 2 2 2 2 2 2 2 2 2 2 2 2 2 2 2 2 2 2 2 2 2 2 2 2 2 2 2
left_child=-1 2 12 -4 5 6 -5 8 9 -8 11 -10 13 -2 15 16 -7 20 19 -19 29 22 -22 24 -23 26 -25 28 -26 -14
right_child=1 -3 3 4 -6 14 7 -9 10 -11 -12 -13 17 -15 -16 -17 -18 18 -20 -21 21 23 -24 25 27 -27 -28 -29 -30 -31
leaf_value=-0.16824462728122133 1.1623299316926436 1.5312258863449097 -0.1093086916674799 2.1486037232659081 0.10713218924832252 0.057827729213086869 0.74204995951482233 1.6031542867422104 0.08620945862249324 -1.0577175058424473 -0.35622390437126161 1.3852747228701372 -0.86584741801787646 -0.83871012427236724 -0.067255854180880967 2.0348915608156299 1.3095253872019905 0.48061191769038136 1.4386882512671191 -0.32847338903662382 0.37427460264141965 0.0041199011964706293 2.2883487304051715 1.1377619526766498 0.39141349733308717 -0.14559937761901143 -0.38003835340863779 0.088015278000706229 1.7481975564589867 -0.075609730392911592
leaf_weight=4234 21 24 213 32 256 78 20 58 37 31 24 73 77 91 111 20 27 253 40 112 122 1192 23 57 610 1000 37 636 25 162
leaf_count=4234 21 24 213 32 256 78 20 58 37 31 24 73 77 91 111 20 27 253 40 112 122 1192 23 57 610 1000 37 636 25 162
internal_value=0 0.133224 0.126774 0.330971 0.453223 0.626059 0.884445 0.709848 0.422671 -0.351229 0.717635 0.95303 0.0818213 -0.456549 0.322511 0.666411 0.38901 0.0957974 0.354542 0.232126 0.069124 0.0951519 0.69148 0.0706552 0.140255 -0.086024 0.542618 0.267824 0.447495 -0.332752
internal_weight=0 5462 5438 980 767 511 275 243 185 51 134 110 4458 112 236 125 105 4346 405 365 3941 3702 145 3557 2463 1094 94 1271 635 239
internal_count=9696 5462 5438 980 767 511 275 243 185 51 134 110 4458 112 236 125 105 4346 405 365 3941 3702 145 3557 2463 1094 94 1271 635 239
is_linear=0
shrinkage=0.1


Tree=28
num_leaves=31
num_cat=0
split_feature=7 18 11 19 19 7 19 1 19 11 1 11 7 6 6 19 6 2 1 11 16 19 4 12 1 2 4 11 5 2
split_gain=17600.1 5422.19 4628.62 4596.04 6500.86 5822.86 4690.39 5106.85 5401.63 4655.65 4261.19 4591.42 4807.34 4471.32 3931.1 3906.67 3589.57 3861.52 3448.02 3375.32 3738.05 3319.75 5040.99 11530.3 4930.65 6997.3 3591.34 3350.08 3307.4 3909.78
threshold=-0.41070478926899556 -0.38230440089764589 0.34332861802128628 0.043834914684709868 0.76599052111398647 1.640707926151024 0.48825970736121799 0.17525841069853418 0.3811785647274975 0.76950639931026388 -0.39725241059869537 -0.87481698580179468 1.0000000180025095e-35 -0.15421322674613686 1.4609664456983582 1.0058766965092349 -0.28902552055112252 -0.19091751705722662 -0.27432762193050297 -0.39591380494047695 -1.1322628102682213 -0.62266354764985599 -0.88356658778762431 -0.55537838823371088 -0.28457135431951902 -0.16767150255778421 -0.1041456153558116 -0.44758155217989903 -0.7615643951366925 -0.1769263678234945
decision_type=2 2 2 2 2 2 2 2 2 2 2 2 2 2 2 2 2 2 2 2 2 2 2 2 2 2 2 2 2 2
left_child=-1 2 10 9 5 28 7 8 -7 -3 -2 -12 13 16 21 -15 17 18 -13 -6 -21 22 -14 24 27 -26 -23 -24 -5 -30
right_child=1 3 -4 4 19 6 -8 -9 -10 -11 11 12 14 15 -16 -17 -18 -19 -20 20 -22 26 23 -25 25 -27 -28 -29 29 -31
leaf_value=-0.15142413804340568 0.34223335104986186 -0.092986347027825281 0.57835740007010084 1.4836226072311403 0.87211775815486914 -0.24841709260282846 0.287104991349307 2.4593325532715897 1.3405364707283591 1.4276795287926993 -0.74550861805169433 0.1144144042453263 -0.29307298211129845 -0.76071435823105282 1.0111987601627004 0.54286774661805903 0.89775909062835479 0.5908374863047885 -1.2527788437329805 1.303142579577186 -0.021880387863054105 -0.17764663287048665 1.2252112172268055 -0.27661249169281554 2.6002125043618052 0.55330125354230408 0.5300036305189133 -0.30227910544603104 -0.097205646240899529 0.42645414890357869
leaf_weight=4234 336 487 148 24 49 28 76 28 86 20 87 63 140 63 32 35 123 116 25 21 660 1660 26 111 37 31 74 30 181 665
leaf_count=4234 336 487 148 24 49 28 76 28 86 20 87 63 140 63 32 35 123 116 25 21 660 1660 26 111 37 31 74 30 181 665
internal_value=0 0.120193 0.0343944 0.235892 0.310104 0.464892 0.926257 1.26394 0.951501 -0.0303072 0.00727573 -0.0352593 -0.0108973 0.295911 -0.0719101 -0.294368 0.473172 0.21404 -0.283705 0.0790863 0.0208302 -0.0888156 0.180638 0.462895 1.12179 1.6886 -0.147159 0.415966 0.348355 0.314436
internal_weight=0 5462 3137 2325 1818 1088 218 142 114 507 2989 2653 2566 425 2141 98 327 204 88 730 681 2109 375 235 124 68 1734 56 870 846
internal_count=9696 5462 3137 2325 1818 1088 218 142 114 507 2989 2653 2566 425 2141 98 327 204 88 730 681 2109 375 235 124 68 1734 56 870 846
is_linear=0
shrinkage=0.1


Tree=29
num_leaves=31
num_cat=0
split_feature=7 18 19 19 10 10 7 7 10 14 14 14 10 19 19 14 19 15 19 6 14 18 19 18 10 10 10 10 10 10
split_gain=14287.1 4403.01 3759.86 6043.5 5839.88 7997.9 7316.15 3560.3 5889.21 7661.91 4882 5558.73 7808.05 7814.07 4361.43 3901.56 3804.07 3077.27 3049.15 2817.02 3433.66 2683.62 2745.54 4513.15 3549.01 3802.06 3798.8 6001.33 5144.71 4503.12
threshold=-0.41070478926899556 -0.38230440089764589 0.17036474515804909 0.76599052111398647 1.3675242722040328 1.2457115817631497 1.640707926151024 1.640707926151024 1.2690374161028932 -0.21171474759432693 1.0000000180025095e-35 0.25560970751888312 -0.3793215439056527 0.59324805893369315 0.34115393568118019 0.18299754118655168 0.46042558624665481 1.1345154914218567 -1.6493519624458044 1.4609664456983582 1.0748238917810842 -0.9170535988902746 0.69774809259187776 1.2219431930802405 0.14939736779520155 0.12088801471329273 -0.15124671925038227 -0.33785339396833086 -0.42597321258513993 -0.083860975602234197
decision_type=2 2 2 2 2 2 2 2 2 2 2 2 2 2 2 2 2 2 2 2 2 2 2 2 2 2 2 2 2 2
left_child=21 18 4 7 5 6 -3 10 9 -9 -4 12 -12 15 -13 -14 -10 -5 -2 -20 -21 -1 24 -24 25 26 27 28 -23 -28
right_child=1 2 3 17 -6 -7 -8 8 16 -11 11 14 13 -15 -16 -17 -18 -19 19 20 -22 22 23 -25 -26 -27 29 -29 -30 -31
leaf_value=0.1900831864974579 0.70890111519740184 -0.068553050127774878 0.16830316744080864 0.11302172522223522 0.71430736565098318 -0.90165861981494411 1.3534877440333366 0.9569295737789858 2.3368745144775938 -0.55095262503137399 -0.40158756494522097 1.599888678959438 0.01530168689787388 2.5466975831467176 0.037397908770348418 1.78114977173862 0.6216374287138815 -0.93820874588242897 -3.6346296190671023e-05 1.6859554441202258 0.2261012871232298 -0.20896102897867497 -0.10546134278194791 0.46645180143278808 0.38663155350986189 -0.95946225932110907 0.64743015716928953 -0.50329381456900157 0.33523526958660366 -0.20478675694515311
leaf_weight=237 64 378 504 702 96 106 39 108 34 48 24 20 31 45 120 20 22 28 2982 20 71 1668 898 162 97 68 108 660 193 143
leaf_count=237 64 378 504 702 96 106 39 108 34 48 24 20 31 45 120 20 22 28 2982 20 71 1668 898 162 97 68 108 660 193 143
internal_value=0 0.108436 0.212695 0.289257 0.00156169 -0.130381 0.0673634 0.451909 0.81407 0.492412 0.350481 0.701628 1.19837 1.59837 0.270375 0.728727 1.68576 0.0714723 0.03112 0.0167781 0.561786 -0.136285 -0.15568 -0.0176985 -0.205456 -0.225808 -0.207471 -0.244408 -0.152374 0.163018
internal_weight=0 5462 2325 1706 619 523 417 976 212 156 764 260 120 96 140 51 56 730 3137 3073 91 4234 3997 1060 2937 2840 2772 2521 1861 251
internal_count=9696 5462 2325 1706 619 523 417 976 212 156 764 260 120 96 140 51 56 730 3137 3073 91 4234 3997 1060 2937 2840 2772 2521 1861 251
is_linear=0
shrinkage=0.1


Tree=30
num_leaves=31
num_cat=0
split_feature=7 12 17 1 11 17 3 3 3 17 11 17 11 1 17 11 12 17 7 16 16 3 0 1 1 0 6 6 3 1
split_gain=11595.6 3441.6 4272.25 7587.48 6304.53 6411.79 4510.18 4398.47 4390.81 6124.29 3189.28 2765.6 2784.14 4808.81 4300.89 3311.75 2821.43 2780.28 2704.49 4324.79 3163.71 3934.54 2727.27 2670.31 4556.31 2815.23 5966.9 3448.6 3398.54 7555.22
threshold=-0.41070478926899556 0.98701273823627977 0.53394716738140979 0.006849699157744831 -0.29683040949322664 0.66967957622737251 0.031256890356332771 0.0083231752073191084 0.16605433839046346 0.79028115916919517 -0.89851176459178816 -1.4181963888274411 1.7226559486709427 0.37229704096759902 -0.39561957228234995 2.1428351299115231 -4.0400398221103559 4.4669828490169801 1.0000000180025095e-35 0.61727738588378278 0.39720943668227277 -0.72258587594469892 -0.27035256916193079 0.32655045829015567 0.14956152645771184 1.027299851579826 0.022679761625119841 -0.20996773968405572 -0.28849519567811666 -0.010442071327987386
decision_type=2 2 2 2 2 2 2 2 2 2 2 2 2 2 2 2 2 2 2 2 2 2 2 2 2 2 2 2 2 2
left_child=11 2 23 4 -4 -6 -7 -5 -9 -10 -3 -1 16 14 -14 -16 -13 -18 19 -12 21 -20 -23 24 25 28 27 -27 29 -2
right_child=1 10 3 7 5 6 -8 8 9 -11 18 12 13 -15 15 -17 17 -19 20 -21 -22 22 -24 -25 -26 26 -28 -29 -30 -31
leaf_value=0.50546357646800466 0.10582920792920342 -0.87313450649380686 0.40279973196355923 -0.21053800177243023 2.9398304508378108 0.43102437232403051 2.1849034932526674 1.5451720501296222 1.296664690832759 -0.083510343031957757 0.18334666890478468 -0.52612028917717069 -0.44832109964412192 -0.24121938518958516 1.9612023402904644 0.55210411105045054 -0.13870803179504171 0.96445569784744922 -0.34443460227686823 1.6252577445723795 -0.30400707783987096 0.053809963570044472 0.55242508544641378 -0.45654657714068891 0.69046638696080587 -0.0094334945749880664 0.44461547726493206 -0.94090711668133731 0.33483994578405119 -0.93525743895285851
leaf_weight=68 1201 39 113 179 23 46 21 31 42 127 392 190 22 100 28 42 3762 22 237 21 328 1408 118 79 136 66 88 99 595 73
leaf_count=68 1201 39 113 179 23 46 21 31 42 127 392 190 22 100 28 42 3762 22 237 21 328 1408 118 79 136 66 88 99 595 73
internal_value=0 0.0978118 0.171883 0.414094 0.905888 1.52618 1.00479 0.148989 0.470213 0.265102 0.0127549 -0.122656 -0.133027 0.238035 0.755957 1.13543 -0.15101 -0.132041 0.0268958 0.260413 -0.0193293 0.0337763 0.0927026 0.111412 0.131476 0.0953416 -0.217134 -0.570619 0.137734 0.0454884
internal_weight=0 5462 2919 582 203 90 67 379 200 169 2543 4234 4166 192 92 70 3974 3784 2504 413 2091 1763 1526 2337 2258 2122 253 165 1869 1274
internal_count=9696 5462 2919 582 203 90 67 379 200 169 2543 4234 4166 192 92 70 3974 3784 2504 413 2091 1763 1526 2337 2258 2122 253 165 1869 1274
is_linear=0
shrinkage=0.1


Tree=31
num_leaves=31
num_cat=0
split_feature=7 5 12 5 17 15 1 16 17 15 0 14 1 1 12 5 1 6 6 1 1 17 14 15 5 14 1 17 14 5
split_gain=9401.49 3727.74 2605.09 3150.9 3349.5 4092.02 6887.74 5116.22 4024.55 3565.5 3263.3 3550.64 5399.75 3942.09 3876.92 3977.89 3069.3 2806.56 3715.12 2786.3 2722.14 4210.63 5541.72 3883.2 4573.15 3080.75 3054.63 3592.13 3103.2 5714.5
threshold=-0.41070478926899556 3.5606543619629965 0.98701273823627977 2.5171768055668173 -0.15254730437525216 2.0591649068938187 0.23549505927667971 0.61727738588378278 -0.10795587038716876 1.8857931414928257 1.6537527443517084 0.12155647736688659 0.052596281835188281 0.14956152645771184 0.21581717500128433 0.41225922521248587 -0.12811366389924847 1.7993544740532126 0.11117440305853504 -0.080222026148891457 -0.27248900329657705 -0.31800733587993718 -0.3606627810965452 0.96114372602086384 -0.25400651238226585 -0.14654998293710644 -0.25865558690799123 -0.36491289618277162 -0.10000372246766319 -0.61561934619566394
decision_type=2 2 2 2 2 2 2 2 2 2 2 2 2 2 2 2 2 2 2 2 2 2 2 2 2 2 2 2 2 2
left_child=-1 2 3 4 9 7 19 17 -9 10 11 13 14 20 15 16 -13 18 -6 -7 -2 23 -23 26 -25 -24 -22 28 -28 -30
right_child=1 -3 -4 -5 5 6 -8 8 -10 -11 -12 12 -14 -15 -16 -17 -18 -19 -20 -21 21 22 25 24 -26 -27 27 -29 29 -31
leaf_value=-0.11032808544419909 -0.023261527382506583 1.3066069159507752 0.008440651185998925 -1.0454953323711049 0.43039855339213623 0.78725279877262733 -0.50433157434066134 0.98371484779022844 -0.10062462295623623 -0.39334763158468689 1.1235577354508062 0.60139785196262463 -1.7495960871378582 1.416524151802063 -0.53613021059847277 -0.82229181853207667 -0.45523038336208893 1.2746362767900741 -0.35501546757434732 2.1808207388847105 1.4425215249711818 -1.3184176554424423 1.2463135713622684 1.8801021252655321 0.16950218184240934 -0.4708683615639096 0.028856824844693527 1.442394189471784 -0.2162870346435479 1.7818747671445214
leaf_weight=4234 500 24 2533 21 615 30 23 36 456 156 30 130 20 24 121 32 34 34 66 30 21 34 20 35 28 20 311 22 27 29
leaf_count=4234 500 24 2533 21 615 30 23 36 456 156 30 130 20 24 121 32 34 34 66 30 21 34 20 35 28 20 311 22 27 29
internal_value=0 0.0881887 0.0825721 0.147185 0.156229 0.275964 0.951266 0.228778 -0.0194483 0.0592175 0.108553 0.0861442 -0.196553 0.175198 -0.0933757 0.181291 0.380909 0.399374 0.35387 1.50837 0.145419 0.299367 -0.398137 0.4091 1.13436 0.397179 0.295168 0.229689 0.15327 0.831583
internal_weight=0 5462 5438 2905 2884 1290 83 1207 492 1594 1438 1408 337 1071 317 196 164 715 681 60 1047 547 74 473 63 40 410 389 367 56
internal_count=9696 5462 5438 2905 2884 1290 83 1207 492 1594 1438 1408 337 1071 317 196 164 715 681 60 1047 547 74 473 63 40 410 389 367 56
is_linear=0
shrinkage=0.1


Tree=32
num_leaves=31
num_cat=0
split_feature=7 18 6 2 2 18 6 2 12 11 12 6 6 14 6 7 12 0 11 12 15 18 14 2 2 15 14 11 15 0
split_gain=7631.22 3371.68 4467.87 8166.14 4980.04 2872.98 2905.84 3623.36 4975.54 2795.88 6696.44 5679.03 4513.96 3550.36 2511.75 2680.05 2313.2 2194.5 2140.5 2713.96 3209.95 4859.34 3200.61 4666.28 2275.96 3369.66 2315.19 4862.1 2438.12 3258.83
threshold=-0.41070478926899556 0.6871939950876117 -0.17603997907646776 -0.1624299920335551 0.99874630466017889 2.291441589065498 0.22229825095207337 0.15271641759654112 0.42718188492494974 0.19899627476344761 0.98701273823627977 -0.29766733425657027 -0.2696184760583164 -0.19179294811340525 -0.31919779583128555 0.79450018104026621 -4.0400398221103559 1.1615397571738006 1.7226559486709427 -4.0400398221103559 0.84556254908686868 1.0000000180025095e-35 -0.26682551999014764 0.15271641759654112 0.032008742420305082 0.66063266599247628 -0.1055892737239964 0.34332861802128628 -0.032854395611495175 -0.80731219153782996
decision_type=2 2 2 2 2 2 2 2 2 2 2 2 2 2 2 2 2 2 2 2 2 2 2 2 2 2 2 2 2 2
left_child=18 16 3 14 5 6 7 8 -4 10 -5 -11 -13 -14 -3 -16 -2 -7 19 -1 24 22 -22 -24 25 26 28 -28 -21 -30
right_child=1 2 4 9 -6 17 -8 -9 -10 11 -12 12 13 -15 15 -17 -18 -19 -20 20 21 -23 23 -25 -26 -27 27 -29 29 -31
leaf_value=-0.47688196443475139 1.0977079540491104 -0.34464087572362689 1.2654958815574648 2.4892453810747934 1.3404663438796998 -0.12522948284943899 -0.71493886972582621 1.1641787319444121 -0.28868769170382086 -0.45420555752866409 0.60185987535450192 2.0460299511109628 -0.13778770530925077 1.4769698259623156 1.0715846611393822 -0.033746977241938578 0.045813496204005107 -1.4846658651828768 0.22615231783201659 -0.16402415794719807 0.063096898653217257 -0.4910758040478973 1.6596964034737778 0.21365955736902029 -0.32295453630250537 -1.0500881087862783 0.019515703642996093 1.4621116106087964 -0.010648406883638328 0.98884048121316104
leaf_weight=196 20 89 24 33 24 23 42 31 116 33 44 30 33 22 35 56 4783 24 192 2023 73 60 45 44 474 35 882 23 146 41
leaf_count=196 20 89 24 33 24 23 42 31 116 33 44 30 33 22 35 56 4783 24 192 2023 73 60 45 44 474 35 882 23 146 41
internal_value=0 0.079555 0.291493 0.517615 -0.00785337 -0.136973 0.0204312 0.204155 -0.0151707 0.964222 1.43228 0.649323 1.07805 0.522956 0.031137 0.398407 0.0504212 -0.835878 -0.0992979 -0.114809 -0.0962382 0.272082 0.556012 0.955119 -0.11887 -0.088067 -0.0769242 0.0577517 -0.132075 0.212585
internal_weight=0 5462 659 375 284 260 213 171 140 195 77 118 85 55 180 91 4803 47 4234 4042 3846 222 162 89 3624 3150 3115 905 2210 187
internal_count=9696 5462 659 375 284 260 213 171 140 195 77 118 85 55 180 91 4803 47 4234 4042 3846 222 162 89 3624 3150 3115 905 2210 187
is_linear=0
shrinkage=0.1


Tree=33
num_leaves=31
num_cat=0
split_feature=7 10 10 10 15 6 2 11 6 4 2 17 12 2 2 11 10 2 2 17 12 14 17 15 17 15 6 15 11 11
split_gain=6190.13 2250.93 3711.45 3865.22 7001.28 6416.39 3462.37 4926.72 4428.18 3377.1 5467.63 5385.18 5496.04 2927.65 2837.03 2803.15 2584.88 3317.09 3158.03 2724.09 2994.32 3166.65 2665.3 3125.89 4782.48 5614.85 3989.05 3060.6 3042.72 3387.91
threshold=-0.41070478926899556 -0.3793215439056527 -0.47780840000679231 -0.50890951245978366 -0.5414115741210741 -0.33138880484623667 -0.20887570208307779 -0.87481698580179468 -0.35835755736511465 0.2855648708600948 0.48334065717108116 0.38780119011906838 0.42718188492494974 0.27759578110278149 -0.20967242168986677 1.7226559486709427 1.5204380750979072 -0.10676545192275962 -0.092055041932898554 -0.10795587038716876 0.98701273823627977 0.086181319410109716 -0.39561957228234995 1.1345154914218567 0.024127339270148134 -0.80724828106926305 -0.38874382041322258 0.53349337136508157 0.47785582279200928 0.019840181382723945
decision_type=2 2 2 2 2 2 2 2 2 2 2 2 2 2 2 2 2 2 2 2 2 2 2 2 2 2 2 2 2 2
left_child=-1 2 3 4 -2 -5 8 -8 -3 10 13 12 -12 -9 -10 -13 17 22 -19 -20 21 -21 -11 24 25 -24 -27 28 29 -26
right_child=1 6 -4 5 -6 -7 7 9 14 16 11 15 -14 -15 -16 -17 -18 18 19 20 -22 -23 23 -25 27 26 -28 -29 -30 -31
leaf_value=-0.089318096662707708 -1.7198058518496429 -0.23079505544720275 -0.25671281510114613 2.0022812366485598 0.14218487955205811 0.11575102731585503 -0.71713839252789824 0.047882968140934505 0.66682234782921646 0.17895135033995876 -1.147649592703039 2.4310186715353108 0.66524562789393327 -0.61954106946489707 2.1303275113756004 0.79720105838775634 -0.36624084397366174 -0.8872023924191792 -0.31007957975380124 0.26017803265974765 -0.14685620041312397 1.226108952505248 2.5534202252115525 1.7486247579352214 0.012184029454604173 -0.34352586303765958 1.119361335741005 -0.92111081197148281 -0.3744525696780231 1.282306438113781
leaf_weight=4234 21 32 488 27 245 51 74 3454 37 154 21 20 69 66 21 24 56 29 79 88 73 55 20 25 38 25 68 20 36 46
leaf_count=4234 21 32 488 27 245 51 74 3454 37 154 21 20 69 66 21 24 56 29 79 88 73 55 20 25 38 25 68 20 36 46
internal_value=0 0.0717645 -0.0796013 0.171666 -0.0107051 0.78586 0.0989759 0.0867137 0.709783 0.100191 0.0591592 0.683706 0.234274 0.0351964 1.22384 1.57736 0.284533 0.333159 0.0908558 0.189676 0.373044 0.637625 0.514257 0.698695 0.588471 1.06953 0.726641 0.195358 0.387511 0.71463
internal_weight=0 5462 832 344 266 78 4630 4540 90 4466 3654 134 90 3520 58 44 812 756 324 295 216 143 432 278 253 113 93 140 120 84
internal_count=9696 5462 832 344 266 78 4630 4540 90 4466 3654 134 90 3520 58 44 812 756 324 295 216 143 432 278 253 113 93 140 120 84
is_linear=0
shrinkage=0.1


Tree=34
num_leaves=31
num_cat=0
split_feature=7 5 4 2 14 14 14 7 10 7 2 10 7 10 2 5 10 15 4 15 10 10 7 7 2 5 14 10 15 10
split_gain=5025.98 2794.85 1932.59 2845.44 2776.8 3851.09 3206.7 8778.08 9073.58 7910.37 5314.01 4810.27 4361.21 3830.59 3090.35 3087.58 3883.82 3882 4968.4 4470.14 3223.54 3048.21 3902.82 3858.68 3248.72 3042.11 2900.68 2803.18 2761.04 2748.65
threshold=-0.41070478926899556 3.5606543619629965 1.259841086399861 -0.17961070188756387 -0.17466392426065011 -0.12234592749299596 -0.22400296035825995 0.79450018104026621 -0.047576344407077524 1.640707926151024 -0.1184243199742266 1.3675242722040328 1.640707926151024 -0.35340395019482657 -0.20023341123726129 -0.64316300849970143 4.8897252575053125 0.96114372602086384 -0.88356658778762431 1.1345154914218567 0.024992917983235805 0.066461067920557726 0.69192954526926509 0.69192954526926509 -0.19810906617459415 -0.45510736632389553 -0.39585175401144429 -0.48817543749112274 0.72998137215287351 -0.3793215439056527
decision_type=2 2 2 2 2 2 2 2 2 2 2 2 2 2 2 2 2 2 2 2 2 2 2 2 2 2 2 2 2 2
left_child=-1 2 4 -4 6 -6 12 10 9 -9 -8 -10 15 -14 -15 16 28 21 -19 20 27 23 26 -17 -24 -21 -23 -20 -2 -29
right_child=1 -3 3 -5 5 -7 7 8 11 -11 -12 -13 13 14 -16 17 -18 18 19 25 -22 22 24 -25 -26 -27 -28 29 -30 -31
leaf_value=-0.080388396040414423 0.52710894354424631 1.1197309505343438 1.3807495244171308 0.21886781014700354 -0.40804577774916712 0.0076690250939943569 0.72984056482347881 0.23970533537132474 -0.4403642194314662 2.1545613053866797 2.3899543503920238 0.38312169214089714 -0.13313810305562632 1.1279332813094645 0.31138456645551998 0.44443266941095472 1.655904447464716 -0.56912567894905808 1.2154539905275619 -0.57059852357180618 1.6368066198117024 -0.10701886472247897 0.44867810830473903 -0.14118503012383979 -0.3885011657326044 0.36494148907685048 -1.5703809588454491 -0.69024846989374899 -0.38696654815799914 0.70408684385399667
leaf_weight=4234 90 24 22 262 252 1869 108 57 206 34 23 107 190 50 535 133 20 63 34 52 36 20 55 701 271 100 42 25 51 30
leaf_count=4234 90 24 22 262 252 1869 108 57 206 34 23 107 190 50 535 133 20 63 34 52 36 20 55 701 271 100 42 25 51 30
internal_value=0 0.064759 0.059898 0.313402 0.0458711 -0.0418918 0.107238 0.32919 0.0976156 0.970789 1.03721 -0.158529 0.0595895 0.25644 0.382981 -0.0290505 0.386535 -0.072106 0.226323 0.408634 0.849071 -0.155256 -0.386427 -0.0473747 -0.246319 0.0432508 -1.10752 0.51579 0.196089 0.0692899
internal_weight=0 5462 5438 284 5154 2121 3033 535 404 91 131 313 2498 775 585 1723 161 1562 340 277 125 1222 388 834 326 152 62 89 141 55
internal_count=9696 5462 5438 284 5154 2121 3033 535 404 91 131 313 2498 775 585 1723 161 1562 340 277 125 1222 388 834 326 152 62 89 141 55
is_linear=0
shrinkage=0.1


Tree=35
num_leaves=31
num_cat=0
split_feature=19 19 16 11 6 17 2 19 5 15 17 5 18 5 19 19 11 0 5 19 19 15 6 13 0 11 17 2 17 19
split_gain=2513.31 3609.81 3442.97 6136.03 4296.36 3557.8 3673.75 3385.13 3283.35 2681.18 3449.7 2626.21 2593.37 3138.77 2718.79 3505.81 2667.43 2931.06 3521.22 3916.33 4578.84 3725.67 2597.64 4137.25 2505.6 2796.37 2435.54 2195.46 4513.35 4159.7
